{"learner":{"attributes":{"best_iteration":"99","best_ntree_limit":"100","scikit_learn":"{\"use_label_encoder\": true, \"n_estimators\": 100, \"objective\": \"binary:logistic\", \"max_depth\": 5, \"learning_rate\": 0.01, \"verbosity\": null, \"booster\": null, \"tree_method\": null, \"gamma\": null, \"min_child_weight\": 1, \"max_delta_step\": null, \"subsample\": null, \"colsample_bytree\": null, \"colsample_bylevel\": null, \"colsample_bynode\": null, \"reg_alpha\": null, \"reg_lambda\": null, \"scale_pos_weight\": 4.4402380952380955, \"base_score\": null, \"missing\": NaN, \"num_parallel_tree\": null, \"random_state\": 1, \"n_jobs\": null, \"monotone_constraints\": null, \"interaction_constraints\": null, \"importance_type\": null, \"gpu_id\": null, \"validate_parameters\": null, \"predictor\": null, \"enable_categorical\": false, \"classes_\": [0, 1], \"n_classes_\": 2, \"_le\": {\"classes_\": [0, 1]}, \"_estimator_type\": \"classifier\"}"},"feature_names":["OPERA_Latin American Wings","MES_7","MES_10","OPERA_Grupo LATAM","MES_12","TIPOVUELO_I","MES_4","MES_11","OPERA_Sky Airline","OPERA_Copa Air"],"feature_types":["float","float","float","float","float","float","float","float","float","float"],"gradient_booster":{"model":{"gbtree_model_param":{"num_trees":"100","size_leaf_vector":"0"},"tree_info":[0,0,0,0,0,0,0,0,0,0,0,0,0,0,0,0,0,0,0,0,0,0,0,0,0,0,0,0,0,0,0,0,0,0,0,0,0,0,0,0,0,0,0,0,0,0,0,0,0,0,0,0,0,0,0,0,0,0,0,0,0,0,0,0,0,0,0,0,0,0,0,0,0,0,0,0,0,0,0,0,0,0,0,0,0,0,0,0,0,0,0,0,0,0,0,0,0,0,0,0],"trees":[{"base_weights":[-2.168139E-8,-2.3867042E-1,2.4169104E-1,-3.1692532E-1,4.337035E-1,2.9905695E-1,-1.118799E0,-3.9733782E-1,2.4322434E-1,2.96071E-1,4.974285E-1,2.4953817E-1,1.1970031E0,-1.2511842E0,-1.7569794E-1,-4.8250058E-1,1.6571285E-1,-4.5493416E-2,7.3128885E-1,3.0350047E-1,1.9048618E-1,1.9707175E-1,6.887213E-1,1.2581859E0,-1.2796677E-2,-1.3087554E0,-7.740647E-1,-5.589768E-1,-3.41468E-2,1.2992124E-1,1.4329177E0,-8.641067E-2,7.349851E-1,1.4491732E-1,6.008221E-1,5.0818163E-1,7.835003E-1,1.1937501E0,1.6691209E0],"categories":[],"categories_nodes":[],"categories_segments":[],"categories_sizes":[],"default_left":[true,true,true,true,true,true,true,true,true,true,false,true,true,true,false,true,true,true,false,false,false,true,true,true,false,false,false,false,false,false,false,false,false,false,false,false,false,false,false],"id":0,"left_children":[1,3,5,7,9,11,13,15,17,19,-1,21,23,25,-1,27,29,31,-1,-1,-1,33,35,37,-1,-1,-1,-1,-1,-1,-1,-1,-1,-1,-1,-1,-1,-1,-1],"loss_changes":[1.0758738E3,4.9389862E2,7.2357336E2,3.787464E2,8.43692E0,3.951176E2,4.661795E1,3.525907E2,1.4882483E2,1.8710518E-1,0E0,1.9409314E2,3.439862E1,8.018616E0,0E0,2.1894348E2,4.365371E1,2.1280746E1,0E0,0E0,0E0,1.5849765E2,1.4987061E1,9.715393E0,0E0,0E0,0E0,0E0,0E0,0E0,0E0,0E0,0E0,0E0,0E0,0E0,0E0,0E0,0E0],"parents":[2147483647,0,0,1,1,2,2,3,3,4,4,5,5,6,6,7,7,8,8,9,9,11,11,12,12,13,13,15,15,16,16,17,17,21,21,22,22,23,23],"right_children":[2,4,6,8,10,12,14,16,18,20,-1,22,24,26,-1,28,30,32,-1,-1,-1,34,36,38,-1,-1,-1,-1,-1,-1,-1,-1,-1,-1,-1,-1,-1,-1,-1],"split_conditions":[5E-1,5E-1,5E-1,5E-1,5E-1,5E-1,5E-1,5E-1,5E-1,5E-1,4.974285E-3,5E-1,5E-1,5E-1,-1.7569794E-3,5E-1,5E-1,5E-1,7.3128883E-3,3.0350047E-3,1.9048618E-3,5E-1,5E-1,5E-1,-1.2796676E-4,-1.3087554E-2,-7.740647E-3,-5.5897683E-3,-3.41468E-4,1.2992125E-3,1.4329176E-2,-8.641067E-4,7.349851E-3,1.4491732E-3,6.008221E-3,5.081816E-3,7.835003E-3,1.1937501E-2,1.6691208E-2],"split_indices":[5,1,9,4,3,0,1,2,8,0,0,1,6,2,0,7,0,0,0,0,0,4,3,2,0,0,0,0,0,0,0,0,0,0,0,0,0,0,0],"split_type":[0,0,0,0,0,0,0,0,0,0,0,0,0,0,0,0,0,0,0,0,0,0,0,0,0,0,0,0,0,0,0,0,0,0,0,0,0,0,0],"sum_hessian":[1.8649E4,9.383142E3,9.265858E3,8.405399E3,9.777419E2,8.891714E3,3.741444E2,7.350488E3,1.0549117E3,3.1121957E2,6.6652234E2,8.428204E3,4.635099E2,3.2780328E2,4.634113E1,6.3849E3,9.65588E2,6.633874E2,3.9152435E2,2.890089E2,2.2210655E1,7.5300815E3,8.981224E2,4.4115927E2,2.2350595E1,2.9095267E2,3.6850594E1,5.454305E3,9.3059454E2,9.4013684E2,2.545119E1,6.3118616E2,3.220119E1,6.669862E3,8.6022E2,3.1137048E2,5.867519E2,3.8473648E2,5.64228E1],"tree_param":{"num_deleted":"0","num_feature":"10","num_nodes":"39","size_leaf_vector":"0"}},{"base_weights":[3.2200405E-6,-2.3628151E-1,2.3927839E-1,-3.137551E-1,4.2937866E-1,2.9607326E-1,-1.10771E0,-3.9336544E-1,2.4080652E-1,2.931267E-1,4.924647E-1,2.4704592E-1,1.1851395E0,-1.2387849E0,-1.739781E-1,-4.7767958E-1,1.6407199E-1,-4.5028757E-2,7.240043E-1,3.0047658E-1,1.886635E-1,1.9510238E-1,6.818568E-1,1.2457186E0,-1.2674139E-2,-1.2957683E0,-7.665399E-1,-5.533923E-1,-3.380571E-2,1.2862328E-1,1.4192005E0,-8.5547954E-2,7.278663E-1,1.434685E-1,5.9482634E-1,5.0311923E-1,7.7569056E-1,1.1818856E0,1.6528338E0],"categories":[],"categories_nodes":[],"categories_segments":[],"categories_sizes":[],"default_left":[true,true,true,true,true,true,true,true,true,true,false,true,true,true,false,true,true,true,false,false,false,true,true,true,false,false,false,false,false,false,false,false,false,false,false,false,false,false,false],"id":1,"left_children":[1,3,5,7,9,11,13,15,17,19,-1,21,23,25,-1,27,29,31,-1,-1,-1,33,35,37,-1,-1,-1,-1,-1,-1,-1,-1,-1,-1,-1,-1,-1,-1,-1],"loss_changes":[1.0544668E3,4.8408215E2,7.092574E2,3.7122546E2,8.268463E0,3.87326E2,4.569641E1,3.455951E2,1.4586902E2,1.8302917E-1,0E0,1.9024524E2,3.3720398E1,7.854492E0,0E0,2.1459021E2,4.2823486E1,2.0868925E1,0E0,0E0,0E0,1.5535068E2,1.4689301E1,9.536621E0,0E0,0E0,0E0,0E0,0E0,0E0,0E0,0E0,0E0,0E0,0E0,0E0,0E0,0E0,0E0],"parents":[2147483647,0,0,1,1,2,2,3,3,4,4,5,5,6,6,7,7,8,8,9,9,11,11,12,12,13,13,15,15,16,16,17,17,21,21,22,22,23,23],"right_children":[2,4,6,8,10,12,14,16,18,20,-1,22,24,26,-1,28,30,32,-1,-1,-1,34,36,38,-1,-1,-1,-1,-1,-1,-1,-1,-1,-1,-1,-1,-1,-1,-1],"split_conditions":[5E-1,5E-1,5E-1,5E-1,5E-1,5E-1,5E-1,5E-1,5E-1,5E-1,4.9246466E-3,5E-1,5E-1,5E-1,-1.739781E-3,5E-1,5E-1,5E-1,7.240043E-3,3.0047658E-3,1.886635E-3,5E-1,5E-1,5E-1,-1.2674139E-4,-1.2957682E-2,-7.6653985E-3,-5.533923E-3,-3.3805709E-4,1.2862327E-3,1.4192005E-2,-8.554795E-4,7.2786626E-3,1.434685E-3,5.948263E-3,5.031192E-3,7.756905E-3,1.1818856E-2,1.6528338E-2],"split_indices":[5,1,9,4,3,0,1,2,8,0,0,1,6,2,0,7,0,0,0,0,0,4,3,2,0,0,0,0,0,0,0,0,0,0,0,0,0,0,0],"split_type":[0,0,0,0,0,0,0,0,0,0,0,0,0,0,0,0,0,0,0,0,0,0,0,0,0,0,0,0,0,0,0,0,0,0,0,0,0,0,0],"sum_hessian":[1.8648893E4,9.383087E3,9.265806E3,8.40535E3,9.7773706E2,8.891674E3,3.7413135E2,7.350444E3,1.0549059E3,3.1121887E2,6.665182E2,8.428182E3,4.6349222E2,3.2779025E2,4.6341095E1,6.3848574E3,9.655863E2,6.633868E2,3.9151913E2,2.8900824E2,2.2210634E1,7.5300703E3,8.981113E2,4.4114163E2,2.2350595E1,2.9094022E2,3.6850044E1,5.454263E3,9.3059454E2,9.401364E2,2.5449884E1,6.3118604E2,3.2200756E1,6.669858E3,8.602122E2,3.1136847E2,5.867429E2,3.8472278E2,5.641887E1],"tree_param":{"num_deleted":"0","num_feature":"10","num_nodes":"39","size_leaf_vector":"0"}},{"base_weights":[6.3628027E-6,-2.3391935E-1,2.3689255E-1,-3.1062043E-1,4.2510137E-1,2.9312202E-1,-1.096806E0,-3.8943765E-1,2.3841526E-1,2.9021317E-1,4.8755667E-1,2.445799E-1,1.1734815E0,-1.2266042E0,-1.7227562E-1,-4.7291335E-1,1.6244844E-1,-4.4568997E-2,7.168112E-1,2.974844E-1,1.8685864E-1,1.931533E-1,6.750772E-1,1.2334719E0,-1.2552903E-2,-1.2830178E0,-7.5910985E-1,-5.478724E-1,-3.3468004E-2,1.2733886E-1,1.4057516E0,-8.469395E-2,7.208347E-1,1.420344E-1,5.8890057E-1,4.98114E-1,7.679819E-1,1.1702211E0,1.6369268E0],"categories":[],"categories_nodes":[],"categories_segments":[],"categories_sizes":[],"default_left":[true,true,true,true,true,true,true,true,true,true,false,true,true,true,false,true,true,true,false,false,false,true,true,true,false,false,false,false,false,false,false,false,false,false,false,false,false,false,false],"id":2,"left_children":[1,3,5,7,9,11,13,15,17,19,-1,21,23,25,-1,27,29,31,-1,-1,-1,33,35,37,-1,-1,-1,-1,-1,-1,-1,-1,-1,-1,-1,-1,-1,-1,-1],"loss_changes":[1.0334985E3,4.7446692E2,6.952569E2,3.6385828E2,8.103729E0,3.7973212E2,4.480069E1,3.38745E2,1.429766E2,1.7904854E-1,0E0,1.8648187E2,3.306067E1,7.696228E0,0E0,2.103302E2,4.2014053E1,2.046551E1,0E0,0E0,0E0,1.5227051E2,1.4398956E1,9.366089E0,0E0,0E0,0E0,0E0,0E0,0E0,0E0,0E0,0E0,0E0,0E0,0E0,0E0,0E0,0E0],"parents":[2147483647,0,0,1,1,2,2,3,3,4,4,5,5,6,6,7,7,8,8,9,9,11,11,12,12,13,13,15,15,16,16,17,17,21,21,22,22,23,23],"right_children":[2,4,6,8,10,12,14,16,18,20,-1,22,24,26,-1,28,30,32,-1,-1,-1,34,36,38,-1,-1,-1,-1,-1,-1,-1,-1,-1,-1,-1,-1,-1,-1,-1],"split_conditions":[5E-1,5E-1,5E-1,5E-1,5E-1,5E-1,5E-1,5E-1,5E-1,5E-1,4.8755663E-3,5E-1,5E-1,5E-1,-1.7227562E-3,5E-1,5E-1,5E-1,7.168112E-3,2.9748438E-3,1.8685864E-3,5E-1,5E-1,5E-1,-1.2552903E-4,-1.2830177E-2,-7.5910985E-3,-5.478724E-3,-3.3468002E-4,1.2733885E-3,1.4057515E-2,-8.469395E-4,7.2083464E-3,1.4203439E-3,5.8890055E-3,4.9811397E-3,7.6798187E-3,1.1702211E-2,1.6369266E-2],"split_indices":[5,1,9,4,3,0,1,2,8,0,0,1,6,2,0,7,0,0,0,0,0,4,3,2,0,0,0,0,0,0,0,0,0,0,0,0,0,0,0],"split_type":[0,0,0,0,0,0,0,0,0,0,0,0,0,0,0,0,0,0,0,0,0,0,0,0,0,0,0,0,0,0,0,0,0,0,0,0,0,0,0],"sum_hessian":[1.8648572E4,9.382924E3,9.265648E3,8.405201E3,9.7772284E2,8.891556E3,3.7409274E2,7.3503125E3,1.0548888E3,3.1121686E2,6.66506E2,8.428116E3,4.6344003E2,3.2775174E2,4.634099E1,6.384731E3,9.6558124E2,6.633852E2,3.915036E2,2.890063E2,2.2210575E1,7.530037E3,8.9807874E2,4.4108942E2,2.2350595E1,2.9090335E2,3.6848408E1,5.4541367E3,9.305944E2,9.4013525E2,2.5446016E1,6.311857E2,3.2199467E1,6.669848E3,8.601892E2,3.1136252E2,5.8671625E2,3.846822E2,5.640723E1],"tree_param":{"num_deleted":"0","num_feature":"10","num_nodes":"39","size_leaf_vector":"0"}},{"base_weights":[9.4097495E-6,-2.3158322E-1,2.3453283E-1,-3.0752036E-1,4.2087027E-1,2.9020247E-1,-1.0860817E0,-3.8555324E-1,2.3605022E-1,2.873295E-1,4.8270285E-1,2.4213946E-1,1.1620225E0,-1.2146351E0,-1.7058985E-1,-4.6820027E-1,1.608412E-1,-4.411396E-2,7.0970744E-1,2.9452297E-1,1.8507138E-1,1.91224E-1,6.683803E-1,1.2214386E0,-1.2432901E-2,-1.2704965E0,-7.517731E-1,-5.424152E-1,-3.3133686E-2,1.2606704E-1,1.3925622E0,-8.38485E-2,7.138893E-1,1.4061444E-1,5.8304423E-1,4.9316415E-1,7.603718E-1,1.1587504E0,1.6213846E0],"categories":[],"categories_nodes":[],"categories_segments":[],"categories_sizes":[],"default_left":[true,true,true,true,true,true,true,true,true,true,false,true,true,true,false,true,true,true,false,false,false,true,true,true,false,false,false,false,false,false,false,false,false,false,false,false,false,false,false],"id":3,"left_children":[1,3,5,7,9,11,13,15,17,19,-1,21,23,25,-1,27,29,31,-1,-1,-1,33,35,37,-1,-1,-1,-1,-1,-1,-1,-1,-1,-1,-1,-1,-1,-1,-1],"loss_changes":[1.0129568E3,4.650469E2,6.81563E2,3.5664124E2,7.9425964E0,3.7232904E2,4.392984E1,3.3203528E2,1.401459E2,1.7515373E-1,0E0,1.8280063E2,3.241864E1,7.5434875E0,0E0,2.0616064E2,4.122476E1,2.0070335E1,0E0,0E0,0E0,1.4925623E2,1.4115875E1,9.203064E0,0E0,0E0,0E0,0E0,0E0,0E0,0E0,0E0,0E0,0E0,0E0,0E0,0E0,0E0,0E0],"parents":[2147483647,0,0,1,1,2,2,3,3,4,4,5,5,6,6,7,7,8,8,9,9,11,11,12,12,13,13,15,15,16,16,17,17,21,21,22,22,23,23],"right_children":[2,4,6,8,10,12,14,16,18,20,-1,22,24,26,-1,28,30,32,-1,-1,-1,34,36,38,-1,-1,-1,-1,-1,-1,-1,-1,-1,-1,-1,-1,-1,-1,-1],"split_conditions":[5E-1,5E-1,5E-1,5E-1,5E-1,5E-1,5E-1,5E-1,5E-1,5E-1,4.8270286E-3,5E-1,5E-1,5E-1,-1.7058984E-3,5E-1,5E-1,5E-1,7.0970743E-3,2.9452296E-3,1.8507137E-3,5E-1,5E-1,5E-1,-1.24329E-4,-1.2704965E-2,-7.517731E-3,-5.4241517E-3,-3.3133684E-4,1.2606704E-3,1.3925621E-2,-8.3848496E-4,7.138893E-3,1.4061444E-3,5.830442E-3,4.9316413E-3,7.603718E-3,1.1587504E-2,1.6213845E-2],"split_indices":[5,1,9,4,3,0,1,2,8,0,0,1,6,2,0,7,0,0,0,0,0,4,3,2,0,0,0,0,0,0,0,0,0,0,0,0,0,0,0],"split_type":[0,0,0,0,0,0,0,0,0,0,0,0,0,0,0,0,0,0,0,0,0,0,0,0,0,0,0,0,0,0,0,0,0,0,0,0,0,0,0],"sum_hessian":[1.8648049E4,9.382657E3,9.265391E3,8.404957E3,9.7769946E2,8.891361E3,3.740293E2,7.3500967E3,1.0548606E3,3.1121353E2,6.6648596E2,8.428008E3,4.633543E2,3.2768848E2,4.6340813E1,6.384524E3,9.6557306E2,6.6338245E2,3.9147818E2,2.8900305E2,2.2210478E1,7.5299824E3,8.980252E2,4.4100372E2,2.2350592E1,2.9084277E2,3.6845722E1,5.453929E3,9.305943E2,9.4013336E2,2.543966E1,6.311851E2,3.219735E1,6.669831E3,8.601514E2,3.1135272E2,5.866725E2,3.846156E2,5.6388126E1],"tree_param":{"num_deleted":"0","num_feature":"10","num_nodes":"39","size_leaf_vector":"0"}},{"base_weights":[1.2413974E-5,-2.2927298E-1,2.3219918E-1,-3.0445465E-1,4.1668513E-1,2.873145E-1,-1.0755315E0,-3.8171196E-1,2.3371123E-1,2.8447568E-1,4.7790283E-1,2.3972467E-1,1.1507564E0,-1.202871E0,-1.6892086E-1,-4.6354005E-1,1.5925036E-1,-4.366337E-2,7.026916E-1,2.9159233E-1,1.833016E-1,1.8931457E-1,6.617653E-1,1.2096125E0,-1.231372E-2,-1.2581967E0,-7.445268E-1,-5.370203E-1,-3.2802645E-2,1.24807976E-1,1.3796232E0,-8.301125E-2,7.070281E-1,1.3920896E-1,5.7725537E-1,4.8826933E-1,7.5285906E-1,1.1474677E0,1.6061947E0],"categories":[],"categories_nodes":[],"categories_segments":[],"categories_sizes":[],"default_left":[true,true,true,true,true,true,true,true,true,true,false,true,true,true,false,true,true,true,false,false,false,true,true,true,false,false,false,false,false,false,false,false,false,false,false,false,false,false,false],"id":4,"left_children":[1,3,5,7,9,11,13,15,17,19,-1,21,23,25,-1,27,29,31,-1,-1,-1,33,35,37,-1,-1,-1,-1,-1,-1,-1,-1,-1,-1,-1,-1,-1,-1,-1],"loss_changes":[9.928347E2,4.558189E2,6.681679E2,3.4957172E2,7.7849426E0,3.651098E2,4.3082855E1,3.2546362E2,1.3737541E2,1.7134666E-1,0E0,1.791995E2,3.1793518E1,7.3959656E0,0E0,2.0207971E2,4.045485E1,1.9683187E1,0E0,0E0,0E0,1.4630551E2,1.3839783E1,9.047424E0,0E0,0E0,0E0,0E0,0E0,0E0,0E0,0E0,0E0,0E0,0E0,0E0,0E0,0E0,0E0],"parents":[2147483647,0,0,1,1,2,2,3,3,4,4,5,5,6,6,7,7,8,8,9,9,11,11,12,12,13,13,15,15,16,16,17,17,21,21,22,22,23,23],"right_children":[2,4,6,8,10,12,14,16,18,20,-1,22,24,26,-1,28,30,32,-1,-1,-1,34,36,38,-1,-1,-1,-1,-1,-1,-1,-1,-1,-1,-1,-1,-1,-1,-1],"split_conditions":[5E-1,5E-1,5E-1,5E-1,5E-1,5E-1,5E-1,5E-1,5E-1,5E-1,4.7790282E-3,5E-1,5E-1,5E-1,-1.6892086E-3,5E-1,5E-1,5E-1,7.026916E-3,2.9159233E-3,1.8330159E-3,5E-1,5E-1,5E-1,-1.231372E-4,-1.2581967E-2,-7.445268E-3,-5.370203E-3,-3.2802645E-4,1.2480797E-3,1.3796232E-2,-8.3011243E-4,7.0702806E-3,1.3920895E-3,5.7725534E-3,4.8826933E-3,7.5285905E-3,1.1474677E-2,1.6061947E-2],"split_indices":[5,1,9,4,3,0,1,2,8,0,0,1,6,2,0,7,0,0,0,0,0,4,3,2,0,0,0,0,0,0,0,0,0,0,0,0,0,0,0],"split_type":[0,0,0,0,0,0,0,0,0,0,0,0,0,0,0,0,0,0,0,0,0,0,0,0,0,0,0,0,0,0,0,0,0,0,0,0,0,0,0],"sum_hessian":[1.8647324E4,9.382288E3,9.265036E3,8.404621E3,9.7766724E2,8.891094E3,3.7394186E2,7.349799E3,1.0548219E3,3.1120892E2,6.664583E2,8.427858E3,4.6323602E2,3.276013E2,4.6340576E1,6.3842373E3,9.655616E2,6.633788E2,3.9144305E2,2.889986E2,2.221034E1,7.5299067E3,8.979513E2,4.4088544E2,2.2350592E1,2.9075925E2,3.684202E1,5.4536436E3,9.305941E2,9.401307E2,2.5430885E1,6.311844E2,3.219443E1,6.669807E3,8.600994E2,3.1133923E2,5.8661206E2,3.8452365E2,5.6361763E1],"tree_param":{"num_deleted":"0","num_feature":"10","num_nodes":"39","size_leaf_vector":"0"}},{"base_weights":[1.5457013E-5,-2.269881E-1,2.2989127E-1,-3.0142272E-1,4.1254532E-1,2.8445777E-1,-1.0651505E0,-3.7791297E-1,2.3139764E-1,2.8165138E-1,4.7315598E-1,2.3733525E-1,1.1396775E0,-1.1913059E0,-1.6726843E-1,-4.589316E-1,1.5767583E-1,-4.3217603E-2,6.9576186E-1,2.8869203E-1,1.8154894E-1,1.8742493E-1,6.5522987E-1,1.1979867E0,-1.2195784E-2,-1.246112E0,-7.373703E-1,-5.316864E-1,-3.2474883E-2,1.2356163E-1,1.3669267E0,-8.2182534E-2,7.00249E-1,1.3781783E-1,5.715337E-1,4.8342896E-1,7.4544054E-1,1.1363674E0,1.5913439E0,-1.220089E0,-1.4860818E0],"categories":[],"categories_nodes":[],"categories_segments":[],"categories_sizes":[],"default_left":[true,true,true,true,true,true,true,true,true,true,false,true,true,true,false,true,true,true,false,false,false,true,true,true,false,true,false,false,false,false,false,false,false,false,false,false,false,false,false,false,false],"id":5,"left_children":[1,3,5,7,9,11,13,15,17,19,-1,21,23,25,-1,27,29,31,-1,-1,-1,33,35,37,-1,39,-1,-1,-1,-1,-1,-1,-1,-1,-1,-1,-1,-1,-1,-1,-1],"loss_changes":[9.73123E2,4.4677866E2,6.5506396E2,3.4264606E2,7.6307373E0,3.580683E2,4.225882E1,3.1902686E2,1.3466379E2,1.6762352E-1,0E0,1.7567609E2,3.1184875E1,7.2535095E0,0E0,1.9808484E2,3.97037E1,1.9303886E1,0E0,0E0,0E0,1.434172E2,1.3570404E1,8.898621E0,0E0,8.117676E-3,0E0,0E0,0E0,0E0,0E0,0E0,0E0,0E0,0E0,0E0,0E0,0E0,0E0,0E0,0E0],"parents":[2147483647,0,0,1,1,2,2,3,3,4,4,5,5,6,6,7,7,8,8,9,9,11,11,12,12,13,13,15,15,16,16,17,17,21,21,22,22,23,23,25,25],"right_children":[2,4,6,8,10,12,14,16,18,20,-1,22,24,26,-1,28,30,32,-1,-1,-1,34,36,38,-1,40,-1,-1,-1,-1,-1,-1,-1,-1,-1,-1,-1,-1,-1,-1,-1],"split_conditions":[5E-1,5E-1,5E-1,5E-1,5E-1,5E-1,5E-1,5E-1,5E-1,5E-1,4.7315597E-3,5E-1,5E-1,5E-1,-1.6726842E-3,5E-1,5E-1,5E-1,6.9576185E-3,2.8869202E-3,1.8154894E-3,5E-1,5E-1,5E-1,-1.2195783E-4,5E-1,-7.373703E-3,-5.3168642E-3,-3.2474883E-4,1.2356163E-3,1.3669266E-2,-8.2182535E-4,7.00249E-3,1.3781782E-3,5.7153367E-3,4.8342897E-3,7.454405E-3,1.1363674E-2,1.5913438E-2,-1.2200889E-2,-1.4860818E-2],"split_indices":[5,1,9,4,3,0,1,2,8,0,0,1,6,2,0,7,0,0,0,0,0,4,3,2,0,7,0,0,0,0,0,0,0,0,0,0,0,0,0,0,0],"split_type":[0,0,0,0,0,0,0,0,0,0,0,0,0,0,0,0,0,0,0,0,0,0,0,0,0,0,0,0,0,0,0,0,0,0,0,0,0,0,0,0,0],"sum_hessian":[1.8646408E4,9.381822E3,9.264586E3,8.404195E3,9.7762634E2,8.890755E3,3.7383102E2,7.349423E3,1.0547727E3,3.1120312E2,6.664233E2,8.427669E3,4.6308624E2,3.2749075E2,4.6340275E1,6.383876E3,9.655471E2,6.6337415E2,3.913986E2,2.8899295E2,2.221017E1,7.5298105E3,8.978578E2,4.4073563E2,2.2350592E1,2.906534E2,3.6837326E1,5.453282E3,9.305938E2,9.401273E2,2.541977E1,6.311834E2,3.219073E1,6.6697773E3,8.600335E2,3.1132217E2,5.865356E2,3.8440726E2,5.632837E1,2.6770694E2,2.2946493E1],"tree_param":{"num_deleted":"0","num_feature":"10","num_nodes":"41","size_leaf_vector":"0"}},{"base_weights":[1.7518612E-5,-2.2472842E-1,2.2760679E-1,-2.9842415E-1,4.0845007E-1,2.8163147E-1,-1.0549716E0,-3.7415582E-1,2.29109E-1,2.7885643E-1,4.68461E-1,2.3497052E-1,1.1287804E0,-1.1799761E0,-1.6563223E-1,-4.543744E-1,1.5611744E-1,-4.277665E-2,6.889164E-1,2.8582206E-1,1.7981318E-1,1.8555439E-1,6.48773E-1,1.1865556E0,-1.2078977E-2,-1.2342832E0,-7.303012E-1,-5.2641284E-1,-3.2150563E-2,1.22327894E-1,1.3544644E0,-8.136237E-2,6.935511E-1,1.3644049E-1,5.6587726E-1,4.7864178E-1,7.3811525E-1,1.1254448E0,1.5768192E0,-1.2084519E0,-1.4725956E0],"categories":[],"categories_nodes":[],"categories_segments":[],"categories_sizes":[],"default_left":[true,true,true,true,true,true,true,true,true,true,false,true,true,true,false,true,true,true,false,false,false,true,true,true,false,true,false,false,false,false,false,false,false,false,false,false,false,false,false,false,false],"id":6,"left_children":[1,3,5,7,9,11,13,15,17,19,-1,21,23,25,-1,27,29,31,-1,-1,-1,33,35,37,-1,39,-1,-1,-1,-1,-1,-1,-1,-1,-1,-1,-1,-1,-1,-1,-1],"loss_changes":[9.538053E2,4.3792212E2,6.422803E2,3.358609E2,7.4797974E0,3.511988E2,4.1460297E1,3.1272217E2,1.3200952E2,1.6399002E-1,0E0,1.7222879E2,3.059198E1,7.117279E0,0E0,1.9417444E2,3.8970642E1,1.8932287E1,0E0,0E0,0E0,1.4058969E2,1.3307556E1,8.756226E0,0E0,1.5075684E-2,0E0,0E0,0E0,0E0,0E0,0E0,0E0,0E0,0E0,0E0,0E0,0E0,0E0,0E0,0E0],"parents":[2147483647,0,0,1,1,2,2,3,3,4,4,5,5,6,6,7,7,8,8,9,9,11,11,12,12,13,13,15,15,16,16,17,17,21,21,22,22,23,23,25,25],"right_children":[2,4,6,8,10,12,14,16,18,20,-1,22,24,26,-1,28,30,32,-1,-1,-1,34,36,38,-1,40,-1,-1,-1,-1,-1,-1,-1,-1,-1,-1,-1,-1,-1,-1,-1],"split_conditions":[5E-1,5E-1,5E-1,5E-1,5E-1,5E-1,5E-1,5E-1,5E-1,5E-1,4.68461E-3,5E-1,5E-1,5E-1,-1.6563223E-3,5E-1,5E-1,5E-1,6.8891635E-3,2.8582206E-3,1.7981317E-3,5E-1,5E-1,5E-1,-1.20789766E-4,5E-1,-7.303012E-3,-5.2641286E-3,-3.2150562E-4,1.2232789E-3,1.3544644E-2,-8.1362366E-4,6.9355113E-3,1.3644048E-3,5.6587723E-3,4.786418E-3,7.3811524E-3,1.12544475E-2,1.576819E-2,-1.2084519E-2,-1.4725955E-2],"split_indices":[5,1,9,4,3,0,1,2,8,0,0,1,6,2,0,7,0,0,0,0,0,4,3,2,0,7,0,0,0,0,0,0,0,0,0,0,0,0,0,0,0],"split_type":[0,0,0,0,0,0,0,0,0,0,0,0,0,0,0,0,0,0,0,0,0,0,0,0,0,0,0,0,0,0,0,0,0,0,0,0,0,0,0,0,0],"sum_hessian":[1.8645305E4,9.38126E3,9.264045E3,8.403683E3,9.775772E2,8.890347E3,3.7369812E2,7.3489697E3,1.0547135E3,3.111961E2,6.663811E2,8.42744E3,4.6290585E2,3.2735822E2,4.6339905E1,6.38344E3,9.6552966E2,6.6336847E2,3.9134506E2,2.8898615E2,2.2209963E1,7.529696E3,8.977451E2,4.4055527E2,2.2350592E1,2.9052655E2,3.683167E1,5.452846E3,9.305936E2,9.401233E2,2.540638E1,6.311822E2,3.2186275E1,6.6697417E3,8.599541E2,3.1130164E2,5.8644354E2,3.8426712E2,5.6288155E1,2.6759225E2,2.2934294E1],"tree_param":{"num_deleted":"0","num_feature":"10","num_nodes":"41","size_leaf_vector":"0"}},{"base_weights":[1.9579122E-5,-2.2249334E-1,2.253472E-1,-2.9545832E-1,4.0439895E-1,2.788354E-1,-1.0449511E0,-3.7043977E-1,2.2684546E-1,2.760898E-1,4.638179E-1,2.3263043E-1,1.1180593E0,-1.1688321E0,-1.6401242E-1,-4.4986746E-1,1.5457481E-1,-4.2339776E-2,6.8215364E-1,2.829812E-1,1.780943E-1,1.8370299E-1,6.423931E-1,1.175313E0,-1.1963633E-2,-1.2226547E0,-7.233179E-1,-5.2119833E-1,-3.182945E-2,1.2110643E-1,1.3422297E0,-8.05499E-2,6.8693256E-1,1.3507701E-1,5.6028557E-1,4.739073E-1,7.308807E-1,1.1146936E0,1.5626101E0,-1.1970083E0,-1.4593775E0],"categories":[],"categories_nodes":[],"categories_segments":[],"categories_sizes":[],"default_left":[true,true,true,true,true,true,true,true,true,true,false,true,true,true,false,true,true,true,false,false,false,true,true,true,false,true,false,false,false,false,false,false,false,false,false,false,false,false,false,false,false],"id":7,"left_children":[1,3,5,7,9,11,13,15,17,19,-1,21,23,25,-1,27,29,31,-1,-1,-1,33,35,37,-1,39,-1,-1,-1,-1,-1,-1,-1,-1,-1,-1,-1,-1,-1,-1,-1],"loss_changes":[9.348799E2,4.2924533E2,6.2977075E2,3.2921405E2,7.332184E0,3.4449506E2,4.06828E1,3.0654633E2,1.2941106E2,1.6043091E-1,0E0,1.6885541E2,3.0014282E1,6.985565E0,0E0,1.9034607E2,3.8255116E1,1.8568165E1,0E0,0E0,0E0,1.3782161E2,1.3050995E1,8.619873E0,0E0,2.2094727E-2,0E0,0E0,0E0,0E0,0E0,0E0,0E0,0E0,0E0,0E0,0E0,0E0,0E0,0E0,0E0],"parents":[2147483647,0,0,1,1,2,2,3,3,4,4,5,5,6,6,7,7,8,8,9,9,11,11,12,12,13,13,15,15,16,16,17,17,21,21,22,22,23,23,25,25],"right_children":[2,4,6,8,10,12,14,16,18,20,-1,22,24,26,-1,28,30,32,-1,-1,-1,34,36,38,-1,40,-1,-1,-1,-1,-1,-1,-1,-1,-1,-1,-1,-1,-1,-1,-1],"split_conditions":[5E-1,5E-1,5E-1,5E-1,5E-1,5E-1,5E-1,5E-1,5E-1,5E-1,4.6381787E-3,5E-1,5E-1,5E-1,-1.6401241E-3,5E-1,5E-1,5E-1,6.8215365E-3,2.8298118E-3,1.7809429E-3,5E-1,5E-1,5E-1,-1.1963632E-4,5E-1,-7.233179E-3,-5.2119833E-3,-3.182945E-4,1.2110643E-3,1.3422297E-2,-8.0549903E-4,6.8693254E-3,1.3507701E-3,5.6028557E-3,4.7390726E-3,7.3088068E-3,1.1146937E-2,1.56261E-2,-1.1970082E-2,-1.4593775E-2],"split_indices":[5,1,9,4,3,0,1,2,8,0,0,1,6,2,0,7,0,0,0,0,0,4,3,2,0,7,0,0,0,0,0,0,0,0,0,0,0,0,0,0,0],"split_type":[0,0,0,0,0,0,0,0,0,0,0,0,0,0,0,0,0,0,0,0,0,0,0,0,0,0,0,0,0,0,0,0,0,0,0,0,0,0,0,0,0],"sum_hessian":[1.8644021E4,9.380606E3,9.263415E3,8.403087E3,9.775199E2,8.889871E3,3.7354343E2,7.348442E3,1.0546445E3,3.1118793E2,6.66332E2,8.427176E3,4.6269586E2,3.2720395E2,4.6339478E1,6.3829326E3,9.6550934E2,6.633619E2,3.9128275E2,2.889782E2,2.2209723E1,7.5295615E3,8.97614E2,4.4034528E2,2.235059E1,2.9037888E2,3.682508E1,5.4523394E3,9.305932E2,9.401185E2,2.5390781E1,6.311808E2,3.2181084E1,6.6696997E3,8.598617E2,3.1127768E2,5.863363E2,3.8410397E2,5.624133E1,2.6745917E2,2.2919724E1],"tree_param":{"num_deleted":"0","num_feature":"10","num_nodes":"41","size_leaf_vector":"0"}},{"base_weights":[2.1666514E-5,-2.2028266E-1,2.2311233E-1,-2.925249E-1,4.003912E-1,2.760693E-1,-1.035085E0,-3.6676428E-1,2.2460599E-1,2.73352E-1,4.5922518E-1,2.3031484E-1,1.1075095E0,-1.1578686E0,-1.6240855E-1,-4.4541016E-1,1.5304808E-1,-4.1907936E-2,6.7547214E-1,2.8017005E-1,1.7639229E-1,1.8187076E-1,6.3608855E-1,1.1642536E0,-1.1848938E-2,-1.2112206E0,-7.1641856E-1,-5.1604223E-1,-3.15114E-2,1.19897455E-1,1.3302141E0,-7.9746135E-2,6.803919E-1,1.3372755E-1,5.547575E-1,4.6922433E-1,7.237351E-1,1.1041102E0,1.5487045E0,-1.1857531E0,-1.4464196E0],"categories":[],"categories_nodes":[],"categories_segments":[],"categories_sizes":[],"default_left":[true,true,true,true,true,true,true,true,true,true,false,true,true,true,false,true,true,true,false,false,false,true,true,true,false,true,false,false,false,false,false,false,false,false,false,false,false,false,false,false,false],"id":8,"left_children":[1,3,5,7,9,11,13,15,17,19,-1,21,23,25,-1,27,29,31,-1,-1,-1,33,35,37,-1,39,-1,-1,-1,-1,-1,-1,-1,-1,-1,-1,-1,-1,-1,-1,-1],"loss_changes":[9.1633997E2,4.2074445E2,6.175292E2,3.2270166E2,7.187668E0,3.379519E2,3.9925568E1,3.0049695E2,1.2686737E2,1.5695572E-1,0E0,1.6555386E2,2.9451172E1,6.8580627E0,0E0,1.8659802E2,3.755648E1,1.8211414E1,0E0,0E0,0E0,1.3511145E2,1.2800537E1,8.48938E0,0E0,2.923584E-2,0E0,0E0,0E0,0E0,0E0,0E0,0E0,0E0,0E0,0E0,0E0,0E0,0E0,0E0,0E0],"parents":[2147483647,0,0,1,1,2,2,3,3,4,4,5,5,6,6,7,7,8,8,9,9,11,11,12,12,13,13,15,15,16,16,17,17,21,21,22,22,23,23,25,25],"right_children":[2,4,6,8,10,12,14,16,18,20,-1,22,24,26,-1,28,30,32,-1,-1,-1,34,36,38,-1,40,-1,-1,-1,-1,-1,-1,-1,-1,-1,-1,-1,-1,-1,-1,-1],"split_conditions":[5E-1,5E-1,5E-1,5E-1,5E-1,5E-1,5E-1,5E-1,5E-1,5E-1,4.5922515E-3,5E-1,5E-1,5E-1,-1.6240855E-3,5E-1,5E-1,5E-1,6.754721E-3,2.8017005E-3,1.7639229E-3,5E-1,5E-1,5E-1,-1.1848938E-4,5E-1,-7.1641854E-3,-5.160422E-3,-3.1511398E-4,1.1989746E-3,1.3302141E-2,-7.974613E-4,6.803919E-3,1.3372755E-3,5.5475747E-3,4.6922434E-3,7.2373506E-3,1.1041102E-2,1.5487045E-2,-1.1857531E-2,-1.4464196E-2],"split_indices":[5,1,9,4,3,0,1,2,8,0,0,1,6,2,0,7,0,0,0,0,0,4,3,2,0,7,0,0,0,0,0,0,0,0,0,0,0,0,0,0,0],"split_type":[0,0,0,0,0,0,0,0,0,0,0,0,0,0,0,0,0,0,0,0,0,0,0,0,0,0,0,0,0,0,0,0,0,0,0,0,0,0,0,0,0],"sum_hessian":[1.8642562E4,9.379863E3,9.262699E3,8.402408E3,9.774549E2,8.889331E3,3.7336758E2,7.347842E3,1.0545663E3,3.1117865E2,6.6627625E2,8.426874E3,4.6245715E2,3.270286E2,4.6338997E1,6.3823555E3,9.6548615E2,6.633543E2,3.912119E2,2.889692E2,2.2209448E1,7.529409E3,8.974649E2,4.4010657E2,2.235059E1,2.90211E2,3.6817596E1,5.4517627E3,9.3059296E2,9.401131E2,2.5373045E1,6.3117914E2,3.2175182E1,6.6696523E3,8.597566E2,3.1125046E2,5.862145E2,3.839185E2,5.6188087E1,2.6730814E2,2.2902843E1],"tree_param":{"num_deleted":"0","num_feature":"10","num_nodes":"41","size_leaf_vector":"0"}},{"base_weights":[2.3643279E-5,-2.1809597E-1,2.2090147E-1,-2.8962335E-1,3.9642632E-1,2.733325E-1,-1.0253688E0,-3.6312878E-1,2.223908E-1,2.706422E-1,4.546826E-1,2.2802311E-1,1.0971256E0,-1.1470803E0,-1.6082059E-1,-4.4100174E-1,1.5153678E-1,-4.148021E-2,6.688703E-1,2.7738777E-1,1.7470658E-1,1.8005703E-1,6.298584E-1,1.1533716E0,-1.17355455E-2,-1.1999753E0,-7.096014E-1,-5.1094335E-1,-3.1196948E-2,1.187005E-1,1.3184117E0,-7.8950055E-2,6.739276E-1,1.3239151E-1,5.492913E-1,4.645926E-1,7.166772E-1,1.0936891E0,1.5350916E0,-1.1746806E0,-1.4337127E0],"categories":[],"categories_nodes":[],"categories_segments":[],"categories_sizes":[],"default_left":[true,true,true,true,true,true,true,true,true,true,false,true,true,true,false,true,true,true,false,false,false,true,true,true,false,true,false,false,false,false,false,false,false,false,false,false,false,false,false,false,false],"id":9,"left_children":[1,3,5,7,9,11,13,15,17,19,-1,21,23,25,-1,27,29,31,-1,-1,-1,33,35,37,-1,39,-1,-1,-1,-1,-1,-1,-1,-1,-1,-1,-1,-1,-1,-1,-1],"loss_changes":[8.981752E2,4.124157E2,6.05548E2,3.1632135E2,7.0462494E0,3.3156403E2,3.9187866E1,2.9457086E2,1.24376854E2,1.5355492E-1,0E0,1.6232281E2,2.8902222E1,6.73468E0,0E0,1.8292786E2,3.6874245E1,1.7861813E1,0E0,0E0,0E0,1.3245753E2,1.2555969E1,8.364258E0,0E0,3.6468506E-2,0E0,0E0,0E0,0E0,0E0,0E0,0E0,0E0,0E0,0E0,0E0,0E0,0E0,0E0,0E0],"parents":[2147483647,0,0,1,1,2,2,3,3,4,4,5,5,6,6,7,7,8,8,9,9,11,11,12,12,13,13,15,15,16,16,17,17,21,21,22,22,23,23,25,25],"right_children":[2,4,6,8,10,12,14,16,18,20,-1,22,24,26,-1,28,30,32,-1,-1,-1,34,36,38,-1,40,-1,-1,-1,-1,-1,-1,-1,-1,-1,-1,-1,-1,-1,-1,-1],"split_conditions":[5E-1,5E-1,5E-1,5E-1,5E-1,5E-1,5E-1,5E-1,5E-1,5E-1,4.546826E-3,5E-1,5E-1,5E-1,-1.6082058E-3,5E-1,5E-1,5E-1,6.6887024E-3,2.7738777E-3,1.7470657E-3,5E-1,5E-1,5E-1,-1.17355456E-4,5E-1,-7.096014E-3,-5.1094336E-3,-3.119695E-4,1.187005E-3,1.3184117E-2,-7.8950054E-4,6.739276E-3,1.3239151E-3,5.492913E-3,4.645926E-3,7.1667717E-3,1.0936891E-2,1.5350916E-2,-1.1746806E-2,-1.4337127E-2],"split_indices":[5,1,9,4,3,0,1,2,8,0,0,1,6,2,0,7,0,0,0,0,0,4,3,2,0,7,0,0,0,0,0,0,0,0,0,0,0,0,0,0,0],"split_type":[0,0,0,0,0,0,0,0,0,0,0,0,0,0,0,0,0,0,0,0,0,0,0,0,0,0,0,0,0,0,0,0,0,0,0,0,0,0,0,0,0],"sum_hessian":[1.8640932E4,9.379032E3,9.261899E3,8.40165E3,9.773822E2,8.888729E3,3.731712E2,7.347172E3,1.0544788E3,3.1116827E2,6.6621387E2,8.426537E3,4.6219064E2,3.2683276E2,4.6338455E1,6.3817114E3,9.654604E2,6.6334595E2,3.911328E2,2.8895914E2,2.2209143E1,7.529239E3,8.9729846E2,4.3984006E2,2.235059E1,2.9002353E2,3.6809227E1,5.451119E3,9.305924E2,9.401071E2,2.5353231E1,6.3117737E2,3.216859E1,6.6695996E3,8.596393E2,3.112201E2,5.8607837E2,3.837114E2,5.6128643E1,2.671398E2,2.288373E1],"tree_param":{"num_deleted":"0","num_feature":"10","num_nodes":"41","size_leaf_vector":"0"}},{"base_weights":[2.5655547E-5,-2.1593285E-1,2.1871452E-1,-2.8675312E-1,3.925036E-1,2.706248E-1,-1.0157984E0,-3.595325E-1,2.2019917E-1,2.679602E-1,4.5018902E-1,2.2575517E-1,1.0869033E0,-1.1364619E0,-1.5924855E-1,-4.3664128E-1,1.5004073E-1,-4.1056946E-2,6.623462E-1,2.746341E-1,1.7303741E-1,1.7826192E-1,6.237007E-1,1.1426622E0,-1.1623226E-2,-1.1889124E0,-7.028651E-1,-5.0590086E-1,-3.0885106E-2,1.1751545E-1,1.3068159E0,-7.816201E-2,6.6753846E-1,1.3106899E-1,5.43887E-1,4.6001115E-1,7.097043E-1,1.083426E0,1.5217619E0,-1.163785E0,-1.4212486E0],"categories":[],"categories_nodes":[],"categories_segments":[],"categories_sizes":[],"default_left":[true,true,true,true,true,true,true,true,true,true,false,true,true,true,false,true,true,true,false,false,false,true,true,true,false,true,false,false,false,false,false,false,false,false,false,false,false,false,false,false,false],"id":10,"left_children":[1,3,5,7,9,11,13,15,17,19,-1,21,23,25,-1,27,29,31,-1,-1,-1,33,35,37,-1,39,-1,-1,-1,-1,-1,-1,-1,-1,-1,-1,-1,-1,-1,-1,-1],"loss_changes":[8.8037854E2,4.0425522E2,5.9382104E2,3.100699E2,6.9078217E0,3.2532642E2,3.8468872E1,2.8876495E2,1.2193824E2,1.5023041E-1,0E0,1.5916E2,2.8366882E1,6.6151733E0,0E0,1.7933472E2,3.620788E1,1.7519234E1,0E0,0E0,0E0,1.2985913E2,1.2317078E1,8.244385E0,0E0,4.3762207E-2,0E0,0E0,0E0,0E0,0E0,0E0,0E0,0E0,0E0,0E0,0E0,0E0,0E0,0E0,0E0],"parents":[2147483647,0,0,1,1,2,2,3,3,4,4,5,5,6,6,7,7,8,8,9,9,11,11,12,12,13,13,15,15,16,16,17,17,21,21,22,22,23,23,25,25],"right_children":[2,4,6,8,10,12,14,16,18,20,-1,22,24,26,-1,28,30,32,-1,-1,-1,34,36,38,-1,40,-1,-1,-1,-1,-1,-1,-1,-1,-1,-1,-1,-1,-1,-1,-1],"split_conditions":[5E-1,5E-1,5E-1,5E-1,5E-1,5E-1,5E-1,5E-1,5E-1,5E-1,4.50189E-3,5E-1,5E-1,5E-1,-1.5924855E-3,5E-1,5E-1,5E-1,6.623462E-3,2.7463408E-3,1.7303741E-3,5E-1,5E-1,5E-1,-1.1623226E-4,5E-1,-7.028651E-3,-5.0590085E-3,-3.0885104E-4,1.1751545E-3,1.3068158E-2,-7.8162004E-4,6.6753845E-3,1.3106898E-3,5.4388703E-3,4.6001114E-3,7.0970426E-3,1.083426E-2,1.5217619E-2,-1.163785E-2,-1.4212485E-2],"split_indices":[5,1,9,4,3,0,1,2,8,0,0,1,6,2,0,7,0,0,0,0,0,4,3,2,0,7,0,0,0,0,0,0,0,0,0,0,0,0,0,0,0],"split_type":[0,0,0,0,0,0,0,0,0,0,0,0,0,0,0,0,0,0,0,0,0,0,0,0,0,0,0,0,0,0,0,0,0,0,0,0,0,0,0,0,0],"sum_hessian":[1.8639139E4,9.378119E3,9.26102E3,8.400816E3,9.773022E2,8.888064E3,3.7295502E2,7.346434E3,1.0543824E3,3.1115686E2,6.661453E2,8.426167E3,4.618972E2,3.2661716E2,4.6337856E1,6.3810024E3,9.65432E2,6.6333673E2,3.910457E2,2.8894806E2,2.2208805E1,7.529052E3,8.9711523E2,4.395466E2,2.2350588E1,2.8981714E2,3.6800014E1,5.45041E3,9.305921E2,9.401006E2,2.5331406E1,6.311754E2,3.2161327E1,6.6695415E3,8.5951025E2,3.1118665E2,5.859286E2,3.8348343E2,5.606318E1,2.6695468E2,2.2862448E1],"tree_param":{"num_deleted":"0","num_feature":"10","num_nodes":"41","size_leaf_vector":"0"}},{"base_weights":[2.74508E-5,-2.137932E-1,2.1655087E-1,-2.83914E-1,3.8862252E-1,2.679455E-1,-1.0063698E0,-3.5597527E-1,2.1803102E-1,2.6530534E-1,4.4574416E-1,2.2351047E-1,1.0768377E0,-1.1260086E0,-1.5769175E-1,-4.323285E-1,1.4856021E-1,-4.0638182E-2,6.558992E-1,2.7190837E-1,1.7138429E-1,1.7648485E-1,6.176146E-1,1.1321199E0,-1.1512049E-2,-1.178027E0,-6.9620836E-1,-5.009143E-1,-3.0576592E-2,1.1634267E-1,1.2954193E0,-7.738199E-2,6.6122293E-1,1.2975955E-1,5.3854275E-1,4.5547903E-1,7.028158E-1,1.0733163E0,1.5087053E0,-1.1530613E0,-1.4090192E0],"categories":[],"categories_nodes":[],"categories_segments":[],"categories_sizes":[],"default_left":[true,true,true,true,true,true,true,true,true,true,false,true,true,true,false,true,true,true,false,false,false,true,true,true,false,true,false,false,false,false,false,false,false,false,false,false,false,false,false,false,false],"id":11,"left_children":[1,3,5,7,9,11,13,15,17,19,-1,21,23,25,-1,27,29,31,-1,-1,-1,33,35,37,-1,39,-1,-1,-1,-1,-1,-1,-1,-1,-1,-1,-1,-1,-1,-1,-1],"loss_changes":[8.6294165E2,3.9625986E2,5.8234155E2,3.0394507E2,6.7723694E0,3.192342E2,3.7768036E1,2.8307794E2,1.195506E2,1.4698029E-1,0E0,1.5606418E2,2.7844727E1,6.4993286E0,0E0,1.7581604E2,3.5556816E1,1.7183521E1,0E0,0E0,0E0,1.2731453E2,1.2083801E1,8.129272E0,0E0,5.1116943E-2,0E0,0E0,0E0,0E0,0E0,0E0,0E0,0E0,0E0,0E0,0E0,0E0,0E0,0E0,0E0],"parents":[2147483647,0,0,1,1,2,2,3,3,4,4,5,5,6,6,7,7,8,8,9,9,11,11,12,12,13,13,15,15,16,16,17,17,21,21,22,22,23,23,25,25],"right_children":[2,4,6,8,10,12,14,16,18,20,-1,22,24,26,-1,28,30,32,-1,-1,-1,34,36,38,-1,40,-1,-1,-1,-1,-1,-1,-1,-1,-1,-1,-1,-1,-1,-1,-1],"split_conditions":[5E-1,5E-1,5E-1,5E-1,5E-1,5E-1,5E-1,5E-1,5E-1,5E-1,4.4574416E-3,5E-1,5E-1,5E-1,-1.5769175E-3,5E-1,5E-1,5E-1,6.558992E-3,2.7190836E-3,1.7138429E-3,5E-1,5E-1,5E-1,-1.15120485E-4,5E-1,-6.9620833E-3,-5.0091427E-3,-3.0576592E-4,1.1634267E-3,1.2954193E-2,-7.738199E-4,6.612229E-3,1.2975954E-3,5.3854273E-3,4.55479E-3,7.0281574E-3,1.0733163E-2,1.5087052E-2,-1.1530613E-2,-1.4090192E-2],"split_indices":[5,1,9,4,3,0,1,2,8,0,0,1,6,2,0,7,0,0,0,0,0,4,3,2,0,7,0,0,0,0,0,0,0,0,0,0,0,0,0,0,0],"split_type":[0,0,0,0,0,0,0,0,0,0,0,0,0,0,0,0,0,0,0,0,0,0,0,0,0,0,0,0,0,0,0,0,0,0,0,0,0,0,0,0,0],"sum_hessian":[1.8637184E4,9.377123E3,9.260061E3,8.399908E3,9.772151E2,8.887341E3,3.7271964E2,7.345631E3,1.0542776E3,3.1114444E2,6.660707E2,8.425763E3,4.6157764E2,3.2638242E2,4.6337204E1,6.3802295E3,9.6540094E2,6.633267E2,3.9095087E2,2.88936E2,2.2208439E1,7.5288477E3,8.9691565E2,4.3922705E2,2.2350584E1,2.8959247E2,3.6789978E1,5.449638E3,9.305915E2,9.400933E2,2.530763E1,6.3117334E2,3.2153416E1,6.669478E3,8.5936957E2,3.111502E2,5.8576544E2,3.8323517E2,5.5991894E1,2.667534E2,2.2839066E1],"tree_param":{"num_deleted":"0","num_feature":"10","num_nodes":"41","size_leaf_vector":"0"}},{"base_weights":[2.9302204E-5,-2.1167655E-1,2.1441059E-1,-2.8110543E-1,3.847825E-1,2.6529464E-1,-9.97079E-1,-3.5245624E-1,2.1588586E-1,2.6267794E-1,4.413468E-1,2.2128914E-1,1.0669242E0,-1.1157157E0,-1.5615065E-1,-4.2806238E-1,1.4709435E-1,-4.0223718E-2,6.495273E-1,2.6921093E-1,1.6974713E-1,1.7472608E-1,6.1159897E-1,1.1217403E0,-1.1401785E-2,-1.1673137E0,-6.8962914E-1,-4.959823E-1,-3.0271461E-2,1.1518132E-1,1.2842164E0,-7.660976E-2,6.5497947E-1,1.284635E-1,5.332581E-1,4.50996E-1,6.960095E-1,1.0633559E0,1.4959122E0,-1.1425045E0,-1.3970172E0],"categories":[],"categories_nodes":[],"categories_segments":[],"categories_sizes":[],"default_left":[true,true,true,true,true,true,true,true,true,true,false,true,true,true,false,true,true,true,false,false,false,true,true,true,false,true,false,false,false,false,false,false,false,false,false,false,false,false,false,false,false],"id":12,"left_children":[1,3,5,7,9,11,13,15,17,19,-1,21,23,25,-1,27,29,31,-1,-1,-1,33,35,37,-1,39,-1,-1,-1,-1,-1,-1,-1,-1,-1,-1,-1,-1,-1,-1,-1],"loss_changes":[8.4585815E2,3.8842563E2,5.711037E2,2.979438E2,6.6397095E0,3.1328247E2,3.7084595E1,2.775058E2,1.172124E2,1.4380074E-1,0E0,1.5303342E2,2.7335205E1,6.386963E0,0E0,1.7237E2,3.492061E1,1.685451E1,0E0,0E0,0E0,1.2482254E2,1.1855835E1,8.018921E0,0E0,5.8563232E-2,0E0,0E0,0E0,0E0,0E0,0E0,0E0,0E0,0E0,0E0,0E0,0E0,0E0,0E0,0E0],"parents":[2147483647,0,0,1,1,2,2,3,3,4,4,5,5,6,6,7,7,8,8,9,9,11,11,12,12,13,13,15,15,16,16,17,17,21,21,22,22,23,23,25,25],"right_children":[2,4,6,8,10,12,14,16,18,20,-1,22,24,26,-1,28,30,32,-1,-1,-1,34,36,38,-1,40,-1,-1,-1,-1,-1,-1,-1,-1,-1,-1,-1,-1,-1,-1,-1],"split_conditions":[5E-1,5E-1,5E-1,5E-1,5E-1,5E-1,5E-1,5E-1,5E-1,5E-1,4.413468E-3,5E-1,5E-1,5E-1,-1.5615065E-3,5E-1,5E-1,5E-1,6.4952727E-3,2.6921092E-3,1.6974712E-3,5E-1,5E-1,5E-1,-1.1401784E-4,5E-1,-6.8962914E-3,-4.9598226E-3,-3.0271462E-4,1.1518132E-3,1.2842163E-2,-7.6609757E-4,6.5497947E-3,1.284635E-3,5.332581E-3,4.50996E-3,6.960095E-3,1.0633559E-2,1.4959122E-2,-1.1425044E-2,-1.3970172E-2],"split_indices":[5,1,9,4,3,0,1,2,8,0,0,1,6,2,0,7,0,0,0,0,0,4,3,2,0,7,0,0,0,0,0,0,0,0,0,0,0,0,0,0,0],"split_type":[0,0,0,0,0,0,0,0,0,0,0,0,0,0,0,0,0,0,0,0,0,0,0,0,0,0,0,0,0,0,0,0,0,0,0,0,0,0,0,0,0],"sum_hessian":[1.8635076E4,9.37605E3,9.259026E3,8.398929E3,9.771211E2,8.886561E3,3.724656E2,7.344764E3,1.0541644E3,3.11131E2,6.6599005E2,8.425328E3,4.6123288E2,3.2612912E2,4.6336502E1,6.3793965E3,9.653676E2,6.6331586E2,3.9084854E2,2.8892297E2,2.220804E1,7.5286274E3,8.967004E2,4.388823E2,2.235058E1,2.8934998E2,3.677915E1,5.4488057E3,9.3059094E2,9.4008563E2,2.5281967E1,6.31171E2,3.214488E1,6.6694097E3,8.5921783E2,3.111109E2,5.855895E2,3.8296735E2,5.591496E1,2.6653632E2,2.2813646E1],"tree_param":{"num_deleted":"0","num_feature":"10","num_nodes":"41","size_leaf_vector":"0"}},{"base_weights":[3.1215877E-5,-2.0958227E-1,2.1229304E-1,-2.783266E-1,3.809831E-1,2.6267162E-1,-9.8792243E-1,-3.489746E-1,2.1376358E-1,2.6007727E-1,4.3699682E-1,2.190906E-1,1.0571592E0,-1.1055787E0,-1.5462452E-1,-4.238419E-1,1.456436E-1,-3.981342E-2,6.4322937E-1,2.66541E-1,1.6812591E-1,1.7298512E-1,6.05652E-1,1.1115189E0,-1.1292604E-2,-1.1567676E0,-6.8312615E-1,-4.9110383E-1,-2.996882E-2,1.1403188E-1,1.2732017E0,-7.584518E-2,6.488074E-1,1.271804E-1,5.2803195E-1,4.465608E-1,6.8928367E-1,1.053541E0,1.483374E0,-1.1321098E0,-1.3852351E0],"categories":[],"categories_nodes":[],"categories_segments":[],"categories_sizes":[],"default_left":[true,true,true,true,true,true,true,true,true,true,false,true,true,true,false,true,true,true,false,false,false,true,true,true,false,true,false,false,false,false,false,false,false,false,false,false,false,false,false,false,false],"id":13,"left_children":[1,3,5,7,9,11,13,15,17,19,-1,21,23,25,-1,27,29,31,-1,-1,-1,33,35,37,-1,39,-1,-1,-1,-1,-1,-1,-1,-1,-1,-1,-1,-1,-1,-1,-1],"loss_changes":[8.29118E2,3.8074908E2,5.6010126E2,2.9206323E2,6.5098724E0,3.0746747E2,3.641797E1,2.720465E2,1.1492262E2,1.4069366E-1,0E0,1.5006598E2,2.6837952E1,6.278076E0,0E0,1.6899536E2,3.4298805E1,1.6532072E1,0E0,0E0,0E0,1.2238202E2,1.1633087E1,7.912842E0,0E0,6.5979004E-2,0E0,0E0,0E0,0E0,0E0,0E0,0E0,0E0,0E0,0E0,0E0,0E0,0E0,0E0,0E0],"parents":[2147483647,0,0,1,1,2,2,3,3,4,4,5,5,6,6,7,7,8,8,9,9,11,11,12,12,13,13,15,15,16,16,17,17,21,21,22,22,23,23,25,25],"right_children":[2,4,6,8,10,12,14,16,18,20,-1,22,24,26,-1,28,30,32,-1,-1,-1,34,36,38,-1,40,-1,-1,-1,-1,-1,-1,-1,-1,-1,-1,-1,-1,-1,-1,-1],"split_conditions":[5E-1,5E-1,5E-1,5E-1,5E-1,5E-1,5E-1,5E-1,5E-1,5E-1,4.369968E-3,5E-1,5E-1,5E-1,-1.5462452E-3,5E-1,5E-1,5E-1,6.4322934E-3,2.66541E-3,1.6812591E-3,5E-1,5E-1,5E-1,-1.12926034E-4,5E-1,-6.8312613E-3,-4.911038E-3,-2.996882E-4,1.1403188E-3,1.2732017E-2,-7.584518E-4,6.488074E-3,1.271804E-3,5.280319E-3,4.465608E-3,6.8928367E-3,1.053541E-2,1.483374E-2,-1.1321098E-2,-1.385235E-2],"split_indices":[5,1,9,4,3,0,1,2,8,0,0,1,6,2,0,7,0,0,0,0,0,4,3,2,0,7,0,0,0,0,0,0,0,0,0,0,0,0,0,0,0],"split_type":[0,0,0,0,0,0,0,0,0,0,0,0,0,0,0,0,0,0,0,0,0,0,0,0,0,0,0,0,0,0,0,0,0,0,0,0,0,0,0,0,0],"sum_hessian":[1.863282E4,9.3749E3,9.257919E3,8.39788E3,9.770204E2,8.885726E3,3.7219363E2,7.343837E3,1.0540432E3,3.1111667E2,6.6590375E2,8.424861E3,4.6086368E2,3.2585788E2,4.633575E1,6.3785054E3,9.6533185E2,6.633042E2,3.90739E2,2.8890906E2,2.2207617E1,7.528392E3,8.9646985E2,4.385131E2,2.235058E1,2.8909033E2,3.6767548E1,5.447915E3,9.3059045E2,9.4007733E2,2.525447E1,6.311685E2,3.213573E1,6.6693364E3,8.5905536E2,3.1106882E2,5.85401E2,3.826805E2,5.5832573E1,2.6630408E2,2.2786253E1],"tree_param":{"num_deleted":"0","num_feature":"10","num_nodes":"41","size_leaf_vector":"0"}},{"base_weights":[3.3018146E-5,-2.0751056E-1,2.1019812E-1,-2.7557772E-1,3.7722367E-1,2.600762E-1,-9.7889674E-1,-3.4553048E-1,2.1166392E-1,2.5750297E-1,4.326932E-1,2.1691476E-1,1.0475382E0,-1.0955933E0,-1.5311348E-1,-4.1966718E-1,1.4420736E-1,-3.940722E-2,6.370044E-1,2.6389822E-1,1.6652049E-1,1.712619E-1,5.99773E-1,1.1014512E0,-1.1184668E-2,-1.1463841E0,-6.7669797E-1,-4.8627886E-1,-2.9669505E-2,1.12893775E-1,1.2623689E0,-7.50881E-2,6.427049E-1,1.2591025E-1,5.228634E-1,4.4217348E-1,6.826372E-1,1.0438675E0,1.4710821E0,-1.1218728E0,-1.3736659E0],"categories":[],"categories_nodes":[],"categories_segments":[],"categories_sizes":[],"default_left":[true,true,true,true,true,true,true,true,true,true,false,true,true,true,false,true,true,true,false,false,false,true,true,true,false,true,false,false,false,false,false,false,false,false,false,false,false,false,false,false,false],"id":14,"left_children":[1,3,5,7,9,11,13,15,17,19,-1,21,23,25,-1,27,29,31,-1,-1,-1,33,35,37,-1,39,-1,-1,-1,-1,-1,-1,-1,-1,-1,-1,-1,-1,-1,-1,-1],"loss_changes":[8.1271655E2,3.7322736E2,5.4932874E2,2.8630164E2,6.3827515E0,3.0178442E2,3.576758E1,2.666977E2,1.1268016E2,1.3765335E-1,0E0,1.4716055E2,2.635257E1,6.1723022E0,0E0,1.656903E2,3.369095E1,1.6216038E1,0E0,0E0,0E0,1.1999165E2,1.1415375E1,7.810913E0,0E0,7.348633E-2,0E0,0E0,0E0,0E0,0E0,0E0,0E0,0E0,0E0,0E0,0E0,0E0,0E0,0E0,0E0],"parents":[2147483647,0,0,1,1,2,2,3,3,4,4,5,5,6,6,7,7,8,8,9,9,11,11,12,12,13,13,15,15,16,16,17,17,21,21,22,22,23,23,25,25],"right_children":[2,4,6,8,10,12,14,16,18,20,-1,22,24,26,-1,28,30,32,-1,-1,-1,34,36,38,-1,40,-1,-1,-1,-1,-1,-1,-1,-1,-1,-1,-1,-1,-1,-1,-1],"split_conditions":[5E-1,5E-1,5E-1,5E-1,5E-1,5E-1,5E-1,5E-1,5E-1,5E-1,4.326932E-3,5E-1,5E-1,5E-1,-1.5311348E-3,5E-1,5E-1,5E-1,6.3700434E-3,2.6389821E-3,1.6652049E-3,5E-1,5E-1,5E-1,-1.1184668E-4,5E-1,-6.7669796E-3,-4.8627886E-3,-2.9669504E-4,1.1289377E-3,1.2623689E-2,-7.50881E-4,6.4270487E-3,1.2591025E-3,5.228634E-3,4.4217347E-3,6.826372E-3,1.0438674E-2,1.471082E-2,-1.1218728E-2,-1.3736659E-2],"split_indices":[5,1,9,4,3,0,1,2,8,0,0,1,6,2,0,7,0,0,0,0,0,4,3,2,0,7,0,0,0,0,0,0,0,0,0,0,0,0,0,0,0],"split_type":[0,0,0,0,0,0,0,0,0,0,0,0,0,0,0,0,0,0,0,0,0,0,0,0,0,0,0,0,0,0,0,0,0,0,0,0,0,0,0,0,0],"sum_hessian":[1.8630418E4,9.373677E3,9.25674E3,8.396764E3,9.769133E2,8.884836E3,3.719042E2,7.3428496E3,1.0539143E3,3.1110138E2,6.6581195E2,8.424365E3,4.6047083E2,3.2556924E2,4.6334953E1,6.3775557E3,9.652937E2,6.6329193E2,3.906224E2,2.8889423E2,2.2207165E1,7.5281406E3,8.9622455E2,4.3812024E2,2.2350578E1,2.8881406E2,3.67552E1,5.446966E3,9.3058984E2,9.400685E2,2.5225203E1,6.311659E2,3.2125996E1,6.669258E3,8.588825E2,3.1102402E2,5.852005E2,3.8237534E2,5.574489E1,2.660571E2,2.2756947E1],"tree_param":{"num_deleted":"0","num_feature":"10","num_nodes":"41","size_leaf_vector":"0"}},{"base_weights":[3.4811077E-5,-2.0546097E-1,2.0812553E-1,-2.7285817E-1,3.7350377E-1,2.5750804E-1,-9.6999806E-1,-3.421231E-1,2.0958622E-1,2.54955E-1,4.284355E-1,2.1476139E-1,1.0380571E0,-1.085755E0,-1.5161753E-1,-4.1553724E-1,1.4278552E-1,-3.900513E-2,6.3085E-1,2.6128253E-1,1.6493046E-1,1.6955632E-1,5.939607E-1,1.0915323E0,-1.10776005E-2,-1.136158E0,-6.703437E-1,-4.8150626E-1,-2.937324E-2,1.11766994E-1,1.2517126E0,-7.433854E-2,6.3667107E-1,1.2465303E-1,5.1775163E-1,4.378327E-1,6.7606866E-1,1.0343314E0,1.4590281E0,-1.1117887E0,-1.362303E0],"categories":[],"categories_nodes":[],"categories_segments":[],"categories_sizes":[],"default_left":[true,true,true,true,true,true,true,true,true,true,false,true,true,true,false,true,true,true,false,false,false,true,true,true,false,true,false,false,false,false,false,false,false,false,false,false,false,false,false,false,false],"id":15,"left_children":[1,3,5,7,9,11,13,15,17,19,-1,21,23,25,-1,27,29,31,-1,-1,-1,33,35,37,-1,39,-1,-1,-1,-1,-1,-1,-1,-1,-1,-1,-1,-1,-1,-1,-1],"loss_changes":[7.966465E2,3.6585693E2,5.387804E2,2.8065594E2,6.258301E0,2.9622913E2,3.5132782E1,2.6145697E2,1.1048362E2,1.346798E-1,0E0,1.4431564E2,2.587854E1,6.069702E0,0E0,1.62453E2,3.3096592E1,1.5906283E1,0E0,0E0,0E0,1.17650314E2,1.1202515E1,7.7129517E0,0E0,8.0963135E-2,0E0,0E0,0E0,0E0,0E0,0E0,0E0,0E0,0E0,0E0,0E0,0E0,0E0,0E0,0E0],"parents":[2147483647,0,0,1,1,2,2,3,3,4,4,5,5,6,6,7,7,8,8,9,9,11,11,12,12,13,13,15,15,16,16,17,17,21,21,22,22,23,23,25,25],"right_children":[2,4,6,8,10,12,14,16,18,20,-1,22,24,26,-1,28,30,32,-1,-1,-1,34,36,38,-1,40,-1,-1,-1,-1,-1,-1,-1,-1,-1,-1,-1,-1,-1,-1,-1],"split_conditions":[5E-1,5E-1,5E-1,5E-1,5E-1,5E-1,5E-1,5E-1,5E-1,5E-1,4.284355E-3,5E-1,5E-1,5E-1,-1.5161752E-3,5E-1,5E-1,5E-1,6.3085E-3,2.6128253E-3,1.6493046E-3,5E-1,5E-1,5E-1,-1.10776E-4,5E-1,-6.703437E-3,-4.8150625E-3,-2.937324E-4,1.1176699E-3,1.2517125E-2,-7.433854E-4,6.3667106E-3,1.2465302E-3,5.177516E-3,4.378327E-3,6.7606866E-3,1.0343314E-2,1.4590281E-2,-1.1117888E-2,-1.362303E-2],"split_indices":[5,1,9,4,3,0,1,2,8,0,0,1,6,2,0,7,0,0,0,0,0,4,3,2,0,7,0,0,0,0,0,0,0,0,0,0,0,0,0,0,0],"split_type":[0,0,0,0,0,0,0,0,0,0,0,0,0,0,0,0,0,0,0,0,0,0,0,0,0,0,0,0,0,0,0,0,0,0,0,0,0,0,0,0,0],"sum_hessian":[1.8627877E4,9.372383E3,9.255494E3,8.395583E3,9.768E2,8.8838955E3,3.7159793E2,7.3418047E3,1.0537778E3,3.110852E2,6.657148E2,8.423841E3,4.6005515E2,3.2526382E2,4.6334103E1,6.3765513E3,9.652533E2,6.632788E2,3.9049905E2,2.888785E2,2.2206686E1,7.5278755E3,8.9596497E2,4.3770456E2,2.2350576E1,2.885217E2,3.6742123E1,5.4459624E3,9.3058923E2,9.400591E2,2.5194221E1,6.3116315E2,3.211569E1,6.6691763E3,8.586996E2,3.1097665E2,5.8498834E2,3.8205246E2,5.5652103E1,2.657959E2,2.272579E1],"tree_param":{"num_deleted":"0","num_feature":"10","num_nodes":"41","size_leaf_vector":"0"}},{"base_weights":[3.668123E-5,-2.0343292E-1,2.0607492E-1,-2.701673E-1,3.6982304E-1,2.5496677E-1,-9.612235E-1,-3.3875164E-1,2.0753014E-1,2.5243315E-1,4.2422318E-1,2.1263015E-1,1.0287126E0,-1.0760602E0,-1.501362E-1,-4.1145116E-1,1.413784E-1,-3.8607735E-2,6.2476605E-1,2.5869375E-1,1.6335568E-1,1.6786812E-1,5.882136E-1,1.0817591E0,-1.0971446E-2,-1.1260854E0,-6.6406125E-1,-4.7678488E-1,-2.90798E-2,1.1065187E-1,1.241228E0,-7.359705E-2,6.3070434E-1,1.2340852E-1,5.126956E-1,4.3353802E-1,6.6957605E-1,1.0249298E0,1.4472045E0,-1.1018537E0,-1.3511399E0],"categories":[],"categories_nodes":[],"categories_segments":[],"categories_sizes":[],"default_left":[true,true,true,true,true,true,true,true,true,true,false,true,true,true,false,true,true,true,false,false,false,true,true,true,false,true,false,false,false,false,false,false,false,false,false,false,false,false,false,false,false],"id":16,"left_children":[1,3,5,7,9,11,13,15,17,19,-1,21,23,25,-1,27,29,31,-1,-1,-1,33,35,37,-1,39,-1,-1,-1,-1,-1,-1,-1,-1,-1,-1,-1,-1,-1,-1,-1],"loss_changes":[7.808991E2,3.5863486E2,5.284508E2,2.751231E2,6.1364136E0,2.9079822E2,3.4513153E1,2.5632202E2,1.0833247E2,1.317749E-1,0E0,1.4152939E2,2.541565E1,5.970001E0,0E0,1.5928223E2,3.2515327E1,1.5602689E1,0E0,0E0,0E0,1.1535683E2,1.0994385E1,7.6186523E0,0E0,8.843994E-2,0E0,0E0,0E0,0E0,0E0,0E0,0E0,0E0,0E0,0E0,0E0,0E0,0E0,0E0,0E0],"parents":[2147483647,0,0,1,1,2,2,3,3,4,4,5,5,6,6,7,7,8,8,9,9,11,11,12,12,13,13,15,15,16,16,17,17,21,21,22,22,23,23,25,25],"right_children":[2,4,6,8,10,12,14,16,18,20,-1,22,24,26,-1,28,30,32,-1,-1,-1,34,36,38,-1,40,-1,-1,-1,-1,-1,-1,-1,-1,-1,-1,-1,-1,-1,-1,-1],"split_conditions":[5E-1,5E-1,5E-1,5E-1,5E-1,5E-1,5E-1,5E-1,5E-1,5E-1,4.2422316E-3,5E-1,5E-1,5E-1,-1.501362E-3,5E-1,5E-1,5E-1,6.2476606E-3,2.5869375E-3,1.6335568E-3,5E-1,5E-1,5E-1,-1.09714456E-4,5E-1,-6.640612E-3,-4.7678486E-3,-2.90798E-4,1.1065187E-3,1.241228E-2,-7.359705E-4,6.307043E-3,1.2340852E-3,5.126956E-3,4.33538E-3,6.6957604E-3,1.0249297E-2,1.4472044E-2,-1.1018537E-2,-1.3511399E-2],"split_indices":[5,1,9,4,3,0,1,2,8,0,0,1,6,2,0,7,0,0,0,0,0,4,3,2,0,7,0,0,0,0,0,0,0,0,0,0,0,0,0,0,0],"split_type":[0,0,0,0,0,0,0,0,0,0,0,0,0,0,0,0,0,0,0,0,0,0,0,0,0,0,0,0,0,0,0,0,0,0,0,0,0,0,0,0,0],"sum_hessian":[1.86252E4,9.37102E3,9.25418E3,8.394339E3,9.7668066E2,8.882904E3,3.712754E2,7.3407046E3,1.0536342E3,3.1106818E2,6.656125E2,8.423287E3,4.596173E2,3.2494217E2,4.6333214E1,6.3754937E3,9.652109E2,6.63265E2,3.9036914E2,2.88862E2,2.2206182E1,7.5275957E3,8.9569165E2,4.3726675E2,2.2350574E1,2.8821384E2,3.672835E1,5.4449053E3,9.305885E2,9.400493E2,2.516158E1,6.3116016E2,3.210483E1,6.669089E3,8.585069E2,3.1092676E2,5.847649E2,3.8171237E2,5.5554367E1,2.65521E2,2.2692839E1],"tree_param":{"num_deleted":"0","num_feature":"10","num_nodes":"41","size_leaf_vector":"0"}},{"base_weights":[3.832181E-5,-2.0142643E-1,2.0404564E-1,-2.67505E-1,3.6618045E-1,2.5245166E-1,-9.5256966E-1,-3.35416E-1,2.054959E-1,2.4993657E-1,4.2005512E-1,2.1052043E-1,1.0195006E0,-1.066505E0,-1.4866933E-1,-4.0740874E-1,1.399854E-1,-3.821397E-2,6.187508E-1,2.5613096E-1,1.6179626E-1,1.6619667E-1,5.82531E-1,1.0721269E0,-1.0866547E-2,-1.116162E0,-6.5785E-1,-4.721145E-1,-2.8789349E-2,1.0954785E-1,1.2309095E0,-7.286252E-2,6.248039E-1,1.2217613E-1,5.076944E-1,4.292891E-1,6.631582E-1,1.0156584E0,1.4356035E0,-1.0920635E0,-1.3401705E0],"categories":[],"categories_nodes":[],"categories_segments":[],"categories_sizes":[],"default_left":[true,true,true,true,true,true,true,true,true,true,false,true,true,true,false,true,true,true,false,false,false,true,true,true,false,true,false,false,false,false,false,false,false,false,false,false,false,false,false,false,false],"id":17,"left_children":[1,3,5,7,9,11,13,15,17,19,-1,21,23,25,-1,27,29,31,-1,-1,-1,33,35,37,-1,39,-1,-1,-1,-1,-1,-1,-1,-1,-1,-1,-1,-1,-1,-1,-1],"loss_changes":[7.654679E2,3.5155737E2,5.1833435E2,2.6970172E2,6.017044E0,2.8548767E2,3.390811E1,2.5129059E2,1.06225204E2,1.2893295E-1,0E0,1.388009E2,2.496344E1,5.873108E0,0E0,1.5617603E2,3.1946764E1,1.5305091E1,0E0,0E0,0E0,1.1311029E2,1.07908325E1,7.527893E0,0E0,9.5947266E-2,0E0,0E0,0E0,0E0,0E0,0E0,0E0,0E0,0E0,0E0,0E0,0E0,0E0,0E0,0E0],"parents":[2147483647,0,0,1,1,2,2,3,3,4,4,5,5,6,6,7,7,8,8,9,9,11,11,12,12,13,13,15,15,16,16,17,17,21,21,22,22,23,23,25,25],"right_children":[2,4,6,8,10,12,14,16,18,20,-1,22,24,26,-1,28,30,32,-1,-1,-1,34,36,38,-1,40,-1,-1,-1,-1,-1,-1,-1,-1,-1,-1,-1,-1,-1,-1,-1],"split_conditions":[5E-1,5E-1,5E-1,5E-1,5E-1,5E-1,5E-1,5E-1,5E-1,5E-1,4.200551E-3,5E-1,5E-1,5E-1,-1.4866933E-3,5E-1,5E-1,5E-1,6.187508E-3,2.5613096E-3,1.6179625E-3,5E-1,5E-1,5E-1,-1.0866547E-4,5E-1,-6.5785E-3,-4.721145E-3,-2.878935E-4,1.0954785E-3,1.2309094E-2,-7.2862516E-4,6.2480387E-3,1.2217613E-3,5.076944E-3,4.292891E-3,6.6315816E-3,1.0156584E-2,1.4356035E-2,-1.0920635E-2,-1.3401705E-2],"split_indices":[5,1,9,4,3,0,1,2,8,0,0,1,6,2,0,7,0,0,0,0,0,4,3,2,0,7,0,0,0,0,0,0,0,0,0,0,0,0,0,0,0],"split_type":[0,0,0,0,0,0,0,0,0,0,0,0,0,0,0,0,0,0,0,0,0,0,0,0,0,0,0,0,0,0,0,0,0,0,0,0,0,0,0,0,0],"sum_hessian":[1.8622393E4,9.36959E3,9.252803E3,8.393034E3,9.765554E2,8.881866E3,3.709371E2,7.339551E3,1.0534834E3,3.1105032E2,6.655051E2,8.422708E3,4.591582E2,3.2460483E2,4.6332283E1,6.3743843E3,9.6516626E2,6.6325055E2,3.9023285E2,2.8884467E2,2.2205652E1,7.5273027E3,8.9540497E2,4.3680765E2,2.2350574E1,2.878909E2,3.6713905E1,5.443797E3,9.305878E2,9.4003894E2,2.512733E1,6.311571E2,3.2093437E1,6.668998E3,8.5830493E2,3.108744E2,5.845306E2,3.8135577E2,5.5451862E1,2.6523276E2,2.2658157E1],"tree_param":{"num_deleted":"0","num_feature":"10","num_nodes":"41","size_leaf_vector":"0"}},{"base_weights":[3.993616E-5,-1.9944116E-1,2.0203777E-1,-2.6487088E-1,3.6257604E-1,2.4996276E-1,-9.4403344E-1,-3.3211568E-1,2.0348302E-1,2.4746564E-1,4.159312E-1,2.0843236E-1,1.0104178E0,-1.0570852E0,-1.4721711E-1,-4.0340927E-1,1.3860613E-1,-3.782413E-2,6.128033E-1,2.535946E-1,1.6025175E-1,1.6454224E-1,5.769117E-1,1.062632E0,-1.0762391E-2,-1.1063832E0,-6.5170836E-1,-4.6749428E-1,-2.8501831E-2,1.0845457E-1,1.2207528E0,-7.21352E-2,6.189685E-1,1.2095622E-1,5.0274736E-1,4.250849E-1,6.56814E-1,1.0065141E0,1.424218E0,-1.082414E0,-1.3293886E0],"categories":[],"categories_nodes":[],"categories_segments":[],"categories_sizes":[],"default_left":[true,true,true,true,true,true,true,true,true,true,false,true,true,true,false,true,true,true,false,false,false,true,true,true,false,true,false,false,false,false,false,false,false,false,false,false,false,false,false,false,false],"id":18,"left_children":[1,3,5,7,9,11,13,15,17,19,-1,21,23,25,-1,27,29,31,-1,-1,-1,33,35,37,-1,39,-1,-1,-1,-1,-1,-1,-1,-1,-1,-1,-1,-1,-1,-1,-1],"loss_changes":[7.503471E2,3.4462222E2,5.0842618E2,2.643894E2,5.9001465E0,2.8029376E2,3.331717E1,2.4636035E2,1.0416097E2,1.2615013E-1,0E0,1.3612857E2,2.4521545E1,5.7789E0,0E0,1.5313354E2,3.139055E1,1.5013367E1,0E0,0E0,0E0,1.10909485E2,1.0591736E1,7.4405212E0,0E0,1.0345459E-1,0E0,0E0,0E0,0E0,0E0,0E0,0E0,0E0,0E0,0E0,0E0,0E0,0E0,0E0,0E0],"parents":[2147483647,0,0,1,1,2,2,3,3,4,4,5,5,6,6,7,7,8,8,9,9,11,11,12,12,13,13,15,15,16,16,17,17,21,21,22,22,23,23,25,25],"right_children":[2,4,6,8,10,12,14,16,18,20,-1,22,24,26,-1,28,30,32,-1,-1,-1,34,36,38,-1,40,-1,-1,-1,-1,-1,-1,-1,-1,-1,-1,-1,-1,-1,-1,-1],"split_conditions":[5E-1,5E-1,5E-1,5E-1,5E-1,5E-1,5E-1,5E-1,5E-1,5E-1,4.1593118E-3,5E-1,5E-1,5E-1,-1.472171E-3,5E-1,5E-1,5E-1,6.1280327E-3,2.535946E-3,1.6025174E-3,5E-1,5E-1,5E-1,-1.07623906E-4,5E-1,-6.5170834E-3,-4.6749427E-3,-2.850183E-4,1.0845456E-3,1.2207528E-2,-7.21352E-4,6.189685E-3,1.2095622E-3,5.0274734E-3,4.2508487E-3,6.5681394E-3,1.006514E-2,1.4242181E-2,-1.082414E-2,-1.3293886E-2],"split_indices":[5,1,9,4,3,0,1,2,8,0,0,1,6,2,0,7,0,0,0,0,0,4,3,2,0,7,0,0,0,0,0,0,0,0,0,0,0,0,0,0,0],"split_type":[0,0,0,0,0,0,0,0,0,0,0,0,0,0,0,0,0,0,0,0,0,0,0,0,0,0,0,0,0,0,0,0,0,0,0,0,0,0,0,0,0],"sum_hessian":[1.8619459E4,9.368096E3,9.251364E3,8.391671E3,9.764247E2,8.88078E3,3.705836E2,7.3383447E3,1.0533259E3,3.1103165E2,6.65393E2,8.422102E3,4.586784E2,3.2425226E2,4.6331306E1,6.373225E3,9.651197E2,6.632354E2,3.9009048E2,2.8882657E2,2.2205097E1,7.5269966E3,8.951054E2,4.3632782E2,2.2350569E1,2.8755347E2,3.6698803E1,5.442638E3,9.305871E2,9.400282E2,2.5091526E1,6.3115393E2,3.2081528E1,6.668903E3,8.580939E2,3.108197E2,5.842857E2,3.809831E2,5.534473E1,2.6493167E2,2.2621798E1],"tree_param":{"num_deleted":"0","num_feature":"10","num_nodes":"41","size_leaf_vector":"0"}},{"base_weights":[4.162962E-5,-1.9747676E-1,2.0005117E-1,-2.6226446E-1,3.5900915E-1,2.4749991E-1,-9.356119E-1,-3.2885003E-1,2.0149092E-1,2.4501947E-1,4.1185084E-1,2.0636585E-1,1.0014609E0,-1.0477973E0,-1.4577927E-1,-3.9945212E-1,1.3724111E-1,-3.7438575E-2,6.0692215E-1,2.510837E-1,1.5872248E-1,1.6290478E-1,5.713546E-1,1.053271E0,-1.065933E-2,-1.0967454E0,-6.456348E-1,-4.6292338E-1,-2.8217077E-2,1.0737263E-1,1.2107531E0,-7.141546E-2,6.131971E-1,1.1974877E-1,4.978541E-1,4.2092508E-1,6.5054184E-1,9.974939E-1,1.4130415E0,-1.0729015E0,-1.3187889E0],"categories":[],"categories_nodes":[],"categories_segments":[],"categories_sizes":[],"default_left":[true,true,true,true,true,true,true,true,true,true,false,true,true,true,false,true,true,true,false,false,false,true,true,true,false,true,false,false,false,false,false,false,false,false,false,false,false,false,false,false,false],"id":19,"left_children":[1,3,5,7,9,11,13,15,17,19,-1,21,23,25,-1,27,29,31,-1,-1,-1,33,35,37,-1,39,-1,-1,-1,-1,-1,-1,-1,-1,-1,-1,-1,-1,-1,-1,-1],"loss_changes":[7.355306E2,3.378261E2,4.9872156E2,2.591833E2,5.7856903E0,2.7521313E2,3.2739777E1,2.415293E2,1.0213884E2,1.2343025E-1,0E0,1.3351093E2,2.408966E1,5.687317E0,0E0,1.5015283E2,3.0846281E1,1.4727413E1,0E0,0E0,0E0,1.0875357E2,1.0396942E1,7.3563232E0,0E0,1.109314E-1,0E0,0E0,0E0,0E0,0E0,0E0,0E0,0E0,0E0,0E0,0E0,0E0,0E0,0E0,0E0],"parents":[2147483647,0,0,1,1,2,2,3,3,4,4,5,5,6,6,7,7,8,8,9,9,11,11,12,12,13,13,15,15,16,16,17,17,21,21,22,22,23,23,25,25],"right_children":[2,4,6,8,10,12,14,16,18,20,-1,22,24,26,-1,28,30,32,-1,-1,-1,34,36,38,-1,40,-1,-1,-1,-1,-1,-1,-1,-1,-1,-1,-1,-1,-1,-1,-1],"split_conditions":[5E-1,5E-1,5E-1,5E-1,5E-1,5E-1,5E-1,5E-1,5E-1,5E-1,4.118508E-3,5E-1,5E-1,5E-1,-1.4577926E-3,5E-1,5E-1,5E-1,6.0692215E-3,2.510837E-3,1.5872247E-3,5E-1,5E-1,5E-1,-1.06593296E-4,5E-1,-6.4563476E-3,-4.629234E-3,-2.8217077E-4,1.0737262E-3,1.2107531E-2,-7.141546E-4,6.131971E-3,1.1974877E-3,4.978541E-3,4.2092507E-3,6.505418E-3,9.974939E-3,1.4130414E-2,-1.0729015E-2,-1.3187889E-2],"split_indices":[5,1,9,4,3,0,1,2,8,0,0,1,6,2,0,7,0,0,0,0,0,4,3,2,0,7,0,0,0,0,0,0,0,0,0,0,0,0,0,0,0],"split_type":[0,0,0,0,0,0,0,0,0,0,0,0,0,0,0,0,0,0,0,0,0,0,0,0,0,0,0,0,0,0,0,0,0,0,0,0,0,0,0,0,0],"sum_hessian":[1.8616404E4,9.36654E3,9.249865E3,8.390251E3,9.7628845E2,8.879649E3,3.702154E2,7.3370894E3,1.0531619E3,3.1101224E2,6.6527625E2,8.421471E3,4.581787E2,3.238851E2,4.6330284E1,6.372018E3,9.650711E2,6.6321967E2,3.899422E2,2.888077E2,2.220452E1,7.5266777E3,8.947934E2,4.3582812E2,2.2350569E1,2.8720203E2,3.6683067E1,5.441432E3,9.305863E2,9.400169E2,2.505422E1,6.311506E2,3.206912E1,6.6688037E3,8.57874E2,3.1076273E2,5.840307E2,3.80595E2,5.5233135E1,2.6461823E2,2.258381E1],"tree_param":{"num_deleted":"0","num_feature":"10","num_nodes":"41","size_leaf_vector":"0"}},{"base_weights":[4.3300868E-5,-1.9553274E-1,1.9808517E-1,-2.596851E-1,3.5547918E-1,2.4506235E-1,-9.273021E-1,-3.256184E-1,1.995197E-1,2.4259809E-1,4.0781313E-1,2.0432022E-1,9.926265E-1,-1.0386381E0,-1.4435548E-1,-3.955363E-1,1.3588962E-1,-3.7056826E-2,6.0110646E-1,2.4859832E-1,1.5720753E-1,1.6128367E-1,5.6585884E-1,1.0440402E0,-1.0557445E-2,-1.0872446E0,-6.396286E-1,-4.181374E-1,6.271029E-1,1.063013E-1,1.2009057E0,-7.070278E-2,6.0748875E-1,1.1855322E-1,4.93013E-1,4.1680878E-1,6.443408E-1,9.885945E-1,1.4020663E0,-1.0635222E0,-1.3083653E0],"categories":[],"categories_nodes":[],"categories_segments":[],"categories_sizes":[],"default_left":[true,true,true,true,true,true,true,true,true,true,false,true,true,true,false,true,true,true,false,false,false,true,true,true,false,true,false,false,false,false,false,false,false,false,false,false,false,false,false,false,false],"id":20,"left_children":[1,3,5,7,9,11,13,15,17,19,-1,21,23,25,-1,27,29,31,-1,-1,-1,33,35,37,-1,39,-1,-1,-1,-1,-1,-1,-1,-1,-1,-1,-1,-1,-1,-1,-1],"loss_changes":[7.210097E2,3.3116574E2,4.892153E2,2.5408118E2,5.6735764E0,2.7024243E2,3.217563E1,2.3679486E2,1.001578E2,1.20773315E-1,0E0,1.3094693E2,2.3667511E1,5.5981445E0,0E0,1.4753131E2,3.0313631E1,1.4447096E1,0E0,0E0,0E0,1.0664125E2,1.020639E1,7.275116E0,0E0,1.18377686E-1,0E0,0E0,0E0,0E0,0E0,0E0,0E0,0E0,0E0,0E0,0E0,0E0,0E0,0E0,0E0],"parents":[2147483647,0,0,1,1,2,2,3,3,4,4,5,5,6,6,7,7,8,8,9,9,11,11,12,12,13,13,15,15,16,16,17,17,21,21,22,22,23,23,25,25],"right_children":[2,4,6,8,10,12,14,16,18,20,-1,22,24,26,-1,28,30,32,-1,-1,-1,34,36,38,-1,40,-1,-1,-1,-1,-1,-1,-1,-1,-1,-1,-1,-1,-1,-1,-1],"split_conditions":[5E-1,5E-1,5E-1,5E-1,5E-1,5E-1,5E-1,5E-1,5E-1,5E-1,4.078131E-3,5E-1,5E-1,5E-1,-1.4435548E-3,5E-1,5E-1,5E-1,6.0110646E-3,2.485983E-3,1.5720753E-3,5E-1,5E-1,5E-1,-1.0557444E-4,5E-1,-6.3962857E-3,-4.181374E-3,6.271029E-3,1.063013E-3,1.2009056E-2,-7.0702774E-4,6.0748872E-3,1.1855322E-3,4.9301297E-3,4.1680876E-3,6.443408E-3,9.885944E-3,1.4020663E-2,-1.0635222E-2,-1.30836535E-2],"split_indices":[5,1,9,4,3,0,1,2,8,0,0,1,6,2,0,0,0,0,0,0,0,4,3,2,0,7,0,0,0,0,0,0,0,0,0,0,0,0,0,0,0],"split_type":[0,0,0,0,0,0,0,0,0,0,0,0,0,0,0,0,0,0,0,0,0,0,0,0,0,0,0,0,0,0,0,0,0,0,0,0,0,0,0,0,0],"sum_hessian":[1.8613232E4,9.364925E3,9.248309E3,8.388777E3,9.7614703E2,8.878476E3,3.69833E2,7.3357856E3,1.0529916E3,3.1099203E2,6.6515497E2,8.420815E3,4.5765976E2,3.2350378E2,4.6329227E1,6.370765E3,9.6502075E2,6.632033E2,3.8978824E2,2.8878812E2,2.220392E1,7.526346E3,8.944694E2,4.353092E2,2.2350563E1,2.8683707E2,3.666672E1,6.2335894E3,1.371759E2,9.4000525E2,2.5015463E1,6.311471E2,3.205623E1,6.6687007E3,8.576457E2,3.1070358E2,5.8376587E2,3.8019196E2,5.5117237E1,2.6429282E2,2.2544258E1],"tree_param":{"num_deleted":"0","num_feature":"10","num_nodes":"41","size_leaf_vector":"0"}},{"base_weights":[4.5201567E-5,-1.9360529E-1,1.9613966E-1,-2.5712737E-1,3.5198575E-1,2.4264996E-1,-9.191018E-1,-3.22413E-1,1.9756876E-1,2.4020141E-1,4.0381753E-1,2.0229544E-1,9.8391134E-1,-1.0296046E0,-1.4294596E-1,-3.916513E-1,1.3455175E-1,-3.6679216E-2,5.953551E-1,2.4613835E-1,1.557076E-1,1.5967892E-1,5.604232E-1,1.0349361E0,-1.0456221E-2,-1.0778776E0,-6.3368845E-1,-4.5451337E-1,-2.4137773E-2,1.05240725E-1,1.1912062E0,-6.999743E-2,6.018419E-1,1.1736968E-1,4.8822367E-1,4.127354E-1,6.382094E-1,9.798126E-1,1.3912873E0,-1.0542732E0,-1.2981133E0],"categories":[],"categories_nodes":[],"categories_segments":[],"categories_sizes":[],"default_left":[true,true,true,true,true,true,true,true,true,true,false,true,true,true,false,true,true,true,false,false,false,true,true,true,false,true,false,false,false,false,false,false,false,false,false,false,false,false,false,false,false],"id":21,"left_children":[1,3,5,7,9,11,13,15,17,19,-1,21,23,25,-1,27,29,31,-1,-1,-1,33,35,37,-1,39,-1,-1,-1,-1,-1,-1,-1,-1,-1,-1,-1,-1,-1,-1,-1],"loss_changes":[7.0677203E2,3.2463348E2,4.7990298E2,2.4907452E2,5.5637283E0,2.6537854E2,3.1624176E1,2.3214685E2,9.821701E1,1.18169785E-1,0E0,1.2843521E2,2.325473E1,5.5113525E0,0E0,1.471673E2,2.979225E1,1.4172283E1,0E0,0E0,0E0,1.04571655E2,1.00199585E1,7.1967773E0,0E0,1.2579346E-1,0E0,0E0,0E0,0E0,0E0,0E0,0E0,0E0,0E0,0E0,0E0,0E0,0E0,0E0,0E0],"parents":[2147483647,0,0,1,1,2,2,3,3,4,4,5,5,6,6,7,7,8,8,9,9,11,11,12,12,13,13,15,15,16,16,17,17,21,21,22,22,23,23,25,25],"right_children":[2,4,6,8,10,12,14,16,18,20,-1,22,24,26,-1,28,30,32,-1,-1,-1,34,36,38,-1,40,-1,-1,-1,-1,-1,-1,-1,-1,-1,-1,-1,-1,-1,-1,-1],"split_conditions":[5E-1,5E-1,5E-1,5E-1,5E-1,5E-1,5E-1,5E-1,5E-1,5E-1,4.038175E-3,5E-1,5E-1,5E-1,-1.4294595E-3,5E-1,5E-1,5E-1,5.953551E-3,2.4613834E-3,1.557076E-3,5E-1,5E-1,5E-1,-1.0456221E-4,5E-1,-6.3368846E-3,-4.5451336E-3,-2.4137773E-4,1.0524072E-3,1.1912062E-2,-6.999743E-4,6.0184193E-3,1.1736968E-3,4.8822365E-3,4.127354E-3,6.3820938E-3,9.798126E-3,1.3912873E-2,-1.0542733E-2,-1.2981134E-2],"split_indices":[5,1,9,4,3,0,1,2,8,0,0,1,6,2,0,7,0,0,0,0,0,4,3,2,0,7,0,0,0,0,0,0,0,0,0,0,0,0,0,0,0],"split_type":[0,0,0,0,0,0,0,0,0,0,0,0,0,0,0,0,0,0,0,0,0,0,0,0,0,0,0,0,0,0,0,0,0,0,0,0,0,0,0,0,0],"sum_hessian":[1.8610104E4,9.363407E3,9.246696E3,8.387406E3,9.760005E2,8.877259E3,3.6943692E2,7.3345913E3,1.0528151E3,3.1097113E2,6.6502936E2,8.420137E3,4.5712225E2,3.231088E2,4.6328125E1,6.369623E3,9.6496844E2,6.631864E2,3.8962872E2,2.8876782E2,2.2203299E1,7.526003E3,8.9413385E2,4.347717E2,2.2350563E1,2.86459E2,3.6649788E1,5.4390527E3,9.3057025E2,9.3999316E2,2.4975302E1,6.3114355E2,3.204287E1,6.6685938E3,8.574092E2,3.106423E2,5.834916E2,3.7977454E2,5.4997166E1,2.6395584E2,2.2503183E1],"tree_param":{"num_deleted":"0","num_feature":"10","num_nodes":"41","size_leaf_vector":"0"}},{"base_weights":[4.672372E-5,-1.9170178E-1,1.9421443E-1,-2.5460175E-1,3.4852836E-1,2.4026246E-1,-9.1100746E-1,-3.1924862E-1,1.9563825E-1,2.3782882E-1,3.9986363E-1,2.0029126E-1,9.7531277E-1,-1.0206925E0,-1.415502E-1,-3.8781732E-1,1.332273E-1,-3.6305107E-2,5.896668E-1,2.4370317E-1,1.5422177E-1,1.5809041E-1,5.550468E-1,1.0259557E0,-1.0356175E-2,-1.06864E0,-6.278134E-1,-4.101968E-1,6.2429494E-1,1.04190774E-1,1.1816506E0,-6.9298744E-2,5.9625596E-1,1.16198026E-1,4.834854E-1,4.087047E-1,6.321461E-1,9.71146E-1,1.3806975E0,-1.0451502E0,-1.2880272E0],"categories":[],"categories_nodes":[],"categories_segments":[],"categories_sizes":[],"default_left":[true,true,true,true,true,true,true,true,true,true,false,true,true,true,false,true,true,true,false,false,false,true,true,true,false,true,false,false,false,false,false,false,false,false,false,false,false,false,false,false,false],"id":22,"left_children":[1,3,5,7,9,11,13,15,17,19,-1,21,23,25,-1,27,29,31,-1,-1,-1,33,35,37,-1,39,-1,-1,-1,-1,-1,-1,-1,-1,-1,-1,-1,-1,-1,-1,-1],"loss_changes":[6.928278E2,3.1823703E2,4.7077972E2,2.4417474E2,5.4561386E0,2.6061847E2,3.1085083E1,2.2760034E2,9.631534E1,1.1562538E-1,0E0,1.2597446E2,2.2851044E1,5.4268494E0,0E0,1.4452386E2,2.9281805E1,1.3902852E1,0E0,0E0,0E0,1.02543884E2,9.837402E0,7.1211853E0,0E0,1.3317871E-1,0E0,0E0,0E0,0E0,0E0,0E0,0E0,0E0,0E0,0E0,0E0,0E0,0E0,0E0,0E0],"parents":[2147483647,0,0,1,1,2,2,3,3,4,4,5,5,6,6,7,7,8,8,9,9,11,11,12,12,13,13,15,15,16,16,17,17,21,21,22,22,23,23,25,25],"right_children":[2,4,6,8,10,12,14,16,18,20,-1,22,24,26,-1,28,30,32,-1,-1,-1,34,36,38,-1,40,-1,-1,-1,-1,-1,-1,-1,-1,-1,-1,-1,-1,-1,-1,-1],"split_conditions":[5E-1,5E-1,5E-1,5E-1,5E-1,5E-1,5E-1,5E-1,5E-1,5E-1,3.9986363E-3,5E-1,5E-1,5E-1,-1.4155019E-3,5E-1,5E-1,5E-1,5.8966675E-3,2.4370316E-3,1.5422177E-3,5E-1,5E-1,5E-1,-1.03561746E-4,5E-1,-6.278134E-3,-4.101968E-3,6.242949E-3,1.0419077E-3,1.1816506E-2,-6.929874E-4,5.9625595E-3,1.1619802E-3,4.834854E-3,4.0870467E-3,6.321461E-3,9.711459E-3,1.38069745E-2,-1.0451501E-2,-1.2880271E-2],"split_indices":[5,1,9,4,3,0,1,2,8,0,0,1,6,2,0,0,0,0,0,0,0,4,3,2,0,7,0,0,0,0,0,0,0,0,0,0,0,0,0,0,0],"split_type":[0,0,0,0,0,0,0,0,0,0,0,0,0,0,0,0,0,0,0,0,0,0,0,0,0,0,0,0,0,0,0,0,0,0,0,0,0,0,0,0,0],"sum_hessian":[1.8606713E4,9.361684E3,9.24503E3,8.385834E3,9.7584906E2,8.876003E3,3.6902765E2,7.333201E3,1.0526328E3,3.1094952E2,6.6489954E2,8.419436E3,4.5656683E2,3.2270065E2,4.6326996E1,6.3682866E3,9.649144E2,6.631689E2,3.8946393E2,2.8874686E2,2.2202658E1,7.5256484E3,8.937871E2,4.3421628E2,2.2350557E1,2.8606836E2,3.663228E1,6.2311016E3,1.3718523E2,9.3998065E2,2.4933786E1,6.3113983E2,3.202906E1,6.668484E3,8.5716486E2,3.1057898E2,5.832081E2,3.793432E2,5.4873085E1,2.6360773E2,2.2460648E1],"tree_param":{"num_deleted":"0","num_feature":"10","num_nodes":"41","size_leaf_vector":"0"}},{"base_weights":[4.86517E-5,-1.8981428E-1,1.9230936E-1,-2.5209704E-1,3.4510672E-1,2.378997E-1,-9.0301704E-1,-3.1610963E-1,1.9372736E-1,2.3548019E-1,3.9595103E-1,1.9830766E-1,9.668276E-1,-1.0118994E0,-1.4016782E-1,-3.840131E-1,1.3191628E-1,-3.5935257E-2,5.840406E-1,2.4129263E-1,1.5275052E-1,1.5651815E-1,5.4972875E-1,1.0170954E0,-1.0257167E-2,-1.0595291E0,-6.22002E-1,-4.4627458E-1,-2.0174723E-2,1.0315145E-1,1.1722354E0,-6.860751E-2,5.907301E-1,1.15038365E-1,4.7879735E-1,4.0471593E-1,6.261503E-1,9.625913E-1,1.3702916E0,-1.0361503E0,-1.2781023E0],"categories":[],"categories_nodes":[],"categories_segments":[],"categories_sizes":[],"default_left":[true,true,true,true,true,true,true,true,true,true,false,true,true,true,false,true,true,true,false,false,false,true,true,true,false,true,false,false,false,false,false,false,false,false,false,false,false,false,false,false,false],"id":23,"left_children":[1,3,5,7,9,11,13,15,17,19,-1,21,23,25,-1,27,29,31,-1,-1,-1,33,35,37,-1,39,-1,-1,-1,-1,-1,-1,-1,-1,-1,-1,-1,-1,-1,-1,-1],"loss_changes":[6.7915533E2,3.1196338E2,4.6184158E2,2.3936597E2,5.3507385E0,2.5595895E2,3.0557922E1,2.231366E2,9.445216E1,1.13134384E-1,0E0,1.2356351E2,2.2456177E1,5.3444824E0,0E0,1.442475E2,2.8782024E1,1.3638731E1,0E0,0E0,0E0,1.0055679E2,9.658722E0,7.0481567E0,0E0,1.4053345E-1,0E0,0E0,0E0,0E0,0E0,0E0,0E0,0E0,0E0,0E0,0E0,0E0,0E0,0E0,0E0],"parents":[2147483647,0,0,1,1,2,2,3,3,4,4,5,5,6,6,7,7,8,8,9,9,11,11,12,12,13,13,15,15,16,16,17,17,21,21,22,22,23,23,25,25],"right_children":[2,4,6,8,10,12,14,16,18,20,-1,22,24,26,-1,28,30,32,-1,-1,-1,34,36,38,-1,40,-1,-1,-1,-1,-1,-1,-1,-1,-1,-1,-1,-1,-1,-1,-1],"split_conditions":[5E-1,5E-1,5E-1,5E-1,5E-1,5E-1,5E-1,5E-1,5E-1,5E-1,3.95951E-3,5E-1,5E-1,5E-1,-1.4016782E-3,5E-1,5E-1,5E-1,5.840406E-3,2.4129262E-3,1.5275052E-3,5E-1,5E-1,5E-1,-1.0257166E-4,5E-1,-6.22002E-3,-4.4627455E-3,-2.0174723E-4,1.0315145E-3,1.1722353E-2,-6.860751E-4,5.9073004E-3,1.1503836E-3,4.787973E-3,4.047159E-3,6.261503E-3,9.625913E-3,1.3702916E-2,-1.0361503E-2,-1.2781022E-2],"split_indices":[5,1,9,4,3,0,1,2,8,0,0,1,6,2,0,7,0,0,0,0,0,4,3,2,0,7,0,0,0,0,0,0,0,0,0,0,0,0,0,0,0],"split_type":[0,0,0,0,0,0,0,0,0,0,0,0,0,0,0,0,0,0,0,0,0,0,0,0,0,0,0,0,0,0,0,0,0,0,0,0,0,0,0,0,0],"sum_hessian":[1.8603373E4,9.36006E3,9.2433125E3,8.384367E3,9.7569293E2,8.874707E3,3.6860562E2,7.331922E3,1.0524448E3,3.1092725E2,6.647657E2,8.418713E3,4.5599417E2,3.222798E2,4.632583E1,6.3670635E3,9.6485876E2,6.631508E2,3.8929398E2,2.8872525E2,2.2201994E1,7.525283E3,8.934296E2,4.3364362E2,2.2350555E1,2.856656E2,3.6614223E1,5.436518E3,9.305455E2,9.3996783E2,2.4890963E1,6.31136E2,3.201482E1,6.66837E3,8.569129E2,3.105137E2,5.829159E2,3.788985E2,5.4745132E1,2.6324887E2,2.2416697E1],"tree_param":{"num_deleted":"0","num_feature":"10","num_nodes":"41","size_leaf_vector":"0"}},{"base_weights":[5.0104038E-5,-1.8795013E-1,1.9042389E-1,-2.4962363E-1,3.4172022E-1,2.3556107E-1,-8.95128E-1,-3.1301063E-1,1.918364E-1,2.3315524E-1,3.920789E-1,1.9634406E-1,9.584527E-1,-1.0032221E0,-1.387993E-1,-3.8025862E-1,1.3061829E-1,-3.5568964E-2,5.784757E-1,2.3890649E-1,1.5129313E-1,1.5496157E-1,5.4446816E-1,1.0083524E0,-1.0159072E-2,-1.0505412E0,-6.162534E-1,-4.024194E-1,6.2144625E-1,1.0212242E-1,1.1629559E0,-6.792294E-2,5.85263E-1,1.1389014E-1,4.74159E-1,4.0076888E-1,6.202204E-1,9.541457E-1,1.3600633E0,-1.0272704E0,-1.268334E0],"categories":[],"categories_nodes":[],"categories_segments":[],"categories_sizes":[],"default_left":[true,true,true,true,true,true,true,true,true,true,false,true,true,true,false,true,true,true,false,false,false,true,true,true,false,true,false,false,false,false,false,false,false,false,false,false,false,false,false,false,false],"id":24,"left_children":[1,3,5,7,9,11,13,15,17,19,-1,21,23,25,-1,27,29,31,-1,-1,-1,33,35,37,-1,39,-1,-1,-1,-1,-1,-1,-1,-1,-1,-1,-1,-1,-1,-1,-1],"loss_changes":[6.6576355E2,3.0581995E2,4.5308405E2,2.3465973E2,5.2474747E0,2.5139716E2,3.0042236E1,2.1877002E2,9.262649E1,1.1070061E-1,0E0,1.21201324E2,2.2069855E1,5.264221E0,0E0,1.4158032E2,2.8292562E1,1.3379766E1,0E0,0E0,0E0,9.860986E1,9.483795E0,6.9776E0,0E0,1.4785767E-1,0E0,0E0,0E0,0E0,0E0,0E0,0E0,0E0,0E0,0E0,0E0,0E0,0E0,0E0,0E0],"parents":[2147483647,0,0,1,1,2,2,3,3,4,4,5,5,6,6,7,7,8,8,9,9,11,11,12,12,13,13,15,15,16,16,17,17,21,21,22,22,23,23,25,25],"right_children":[2,4,6,8,10,12,14,16,18,20,-1,22,24,26,-1,28,30,32,-1,-1,-1,34,36,38,-1,40,-1,-1,-1,-1,-1,-1,-1,-1,-1,-1,-1,-1,-1,-1,-1],"split_conditions":[5E-1,5E-1,5E-1,5E-1,5E-1,5E-1,5E-1,5E-1,5E-1,5E-1,3.920789E-3,5E-1,5E-1,5E-1,-1.3879929E-3,5E-1,5E-1,5E-1,5.784757E-3,2.3890648E-3,1.5129313E-3,5E-1,5E-1,5E-1,-1.0159071E-4,5E-1,-6.1625335E-3,-4.0241936E-3,6.214462E-3,1.0212242E-3,1.1629558E-2,-6.792294E-4,5.85263E-3,1.1389013E-3,4.74159E-3,4.0076887E-3,6.202204E-3,9.5414575E-3,1.3600633E-2,-1.0272704E-2,-1.268334E-2],"split_indices":[5,1,9,4,3,0,1,2,8,0,0,1,6,2,0,0,0,0,0,0,0,4,3,2,0,7,0,0,0,0,0,0,0,0,0,0,0,0,0,0,0],"split_type":[0,0,0,0,0,0,0,0,0,0,0,0,0,0,0,0,0,0,0,0,0,0,0,0,0,0,0,0,0,0,0,0,0,0,0,0,0,0,0,0,0],"sum_hessian":[1.859978E4,9.358234E3,9.241545E3,8.382702E3,9.755323E2,8.873373E3,3.6817133E2,7.330451E3,1.0522513E3,3.109043E2,6.64628E2,8.417969E3,4.5540482E2,3.2184668E2,4.6324627E1,6.36565E3,9.648014E2,6.631322E2,3.891191E2,2.88703E2,2.2201311E1,7.5249067E3,8.9306165E2,4.3305426E2,2.2350552E1,2.8525107E2,3.6595634E1,6.2284556E3,1.3719406E2,9.399545E2,2.4846876E1,6.31132E2,3.2000156E1,6.668253E3,8.566537E2,3.104465E2,5.826152E2,3.7844083E2,5.4613445E1,2.6287967E2,2.2371378E1],"tree_param":{"num_deleted":"0","num_feature":"10","num_nodes":"41","size_leaf_vector":"0"}},{"base_weights":[5.1989406E-5,-1.8610136E-1,1.8855795E-1,-2.4717034E-1,3.383685E-1,2.3324646E-1,-8.873379E-1,-3.0993614E-1,1.8996477E-1,2.3085359E-1,3.8824698E-1,1.9440041E-1,9.501861E-1,-9.9465793E-1,-1.3744435E-1,-3.7653282E-1,1.2933339E-1,-3.5206467E-2,5.7297087E-1,2.3654425E-1,1.4985019E-1,1.5342072E-1,5.3926414E-1,9.997239E-1,-1.0061627E-2,-1.0416733E0,-6.1056644E-1,-4.382018E-1,-1.632545E-2,1.01103775E-1,1.153809E0,-6.724525E-2,5.798538E-1,1.1275345E-1,4.695696E-1,3.9686248E-1,6.143558E-1,9.458073E-1,1.3500079E0,-1.0185076E0,-1.2587177E0],"categories":[],"categories_nodes":[],"categories_segments":[],"categories_sizes":[],"default_left":[true,true,true,true,true,true,true,true,true,true,false,true,true,true,false,true,true,true,false,false,false,true,true,true,false,true,false,false,false,false,false,false,false,false,false,false,false,false,false,false,false],"id":25,"left_children":[1,3,5,7,9,11,13,15,17,19,-1,21,23,25,-1,27,29,31,-1,-1,-1,33,35,37,-1,39,-1,-1,-1,-1,-1,-1,-1,-1,-1,-1,-1,-1,-1,-1,-1],"loss_changes":[6.526312E2,2.9979398E2,4.445029E2,2.300409E2,5.1463165E0,2.4693076E2,2.953775E1,2.1448248E2,9.0837494E1,1.0831833E-1,0E0,1.1888681E2,2.1691803E1,5.1860046E0,0E0,1.4139044E2,2.7813164E1,1.312586E1,0E0,0E0,0E0,9.670201E1,9.3125E0,6.9093018E0,0E0,1.5509033E-1,0E0,0E0,0E0,0E0,0E0,0E0,0E0,0E0,0E0,0E0,0E0,0E0,0E0,0E0,0E0],"parents":[2147483647,0,0,1,1,2,2,3,3,4,4,5,5,6,6,7,7,8,8,9,9,11,11,12,12,13,13,15,15,16,16,17,17,21,21,22,22,23,23,25,25],"right_children":[2,4,6,8,10,12,14,16,18,20,-1,22,24,26,-1,28,30,32,-1,-1,-1,34,36,38,-1,40,-1,-1,-1,-1,-1,-1,-1,-1,-1,-1,-1,-1,-1,-1,-1],"split_conditions":[5E-1,5E-1,5E-1,5E-1,5E-1,5E-1,5E-1,5E-1,5E-1,5E-1,3.8824698E-3,5E-1,5E-1,5E-1,-1.3744434E-3,5E-1,5E-1,5E-1,5.7297084E-3,2.3654425E-3,1.4985019E-3,5E-1,5E-1,5E-1,-1.0061627E-4,5E-1,-6.105664E-3,-4.382018E-3,-1.6325449E-4,1.0110377E-3,1.1538089E-2,-6.724525E-4,5.7985377E-3,1.1275344E-3,4.695696E-3,3.968625E-3,6.143558E-3,9.4580725E-3,1.3500079E-2,-1.0185076E-2,-1.2587177E-2],"split_indices":[5,1,9,4,3,0,1,2,8,0,0,1,6,2,0,7,0,0,0,0,0,4,3,2,0,7,0,0,0,0,0,0,0,0,0,0,0,0,0,0,0],"split_type":[0,0,0,0,0,0,0,0,0,0,0,0,0,0,0,0,0,0,0,0,0,0,0,0,0,0,0,0,0,0,0,0,0,0,0,0,0,0,0,0,0],"sum_hessian":[1.8596242E4,9.356514E3,9.2397295E3,8.381146E3,9.753673E2,8.872004E3,3.677252E2,7.3290938E3,1.0520526E3,3.1088077E2,6.644866E2,8.417204E3,4.5479944E2,3.214018E2,4.6323387E1,6.3643516E3,9.647425E2,6.6311304E2,3.8893948E2,2.8868015E2,2.220061E1,7.5245205E3,8.926838E2,4.3244888E2,2.235055E1,2.8482526E2,3.6576534E1,5.433839E3,9.305126E2,9.39941E2,2.480157E1,6.31128E2,3.198509E1,6.6681333E3,8.563874E2,3.1037753E2,5.823063E2,3.7797073E2,5.4478153E1,2.6250052E2,2.2324741E1],"tree_param":{"num_deleted":"0","num_feature":"10","num_nodes":"41","size_leaf_vector":"0"}},{"base_weights":[5.3376414E-5,-1.842755E-1,1.8671113E-1,-2.4474774E-1,3.3505124E-1,2.3095542E-1,-8.796445E-1,-3.069008E-1,1.8811245E-1,2.2857545E-1,3.844546E-1,1.9247638E-1,9.4202435E-1,-9.8620397E-1,-1.3610259E-1,-3.728557E-1,1.2806135E-1,-3.484748E-2,5.675252E-1,2.3420626E-1,1.4842089E-1,1.5189531E-1,5.341156E-1,9.9120665E-1,-9.965531E-3,-1.0329224E0,-6.0494024E-1,-3.948005E-1,6.185585E-1,1.000953E-1,1.1447906E0,-6.657411E-2,5.7450145E-1,1.1162807E-1,4.6502823E-1,3.929963E-1,6.0855484E-1,9.3757266E-1,1.3401196E0,-1.0098587E0,-1.249249E0],"categories":[],"categories_nodes":[],"categories_segments":[],"categories_sizes":[],"default_left":[true,true,true,true,true,true,true,true,true,true,false,true,true,true,false,true,true,true,false,false,false,true,true,true,false,true,false,false,false,false,false,false,false,false,false,false,false,false,false,false,false],"id":26,"left_children":[1,3,5,7,9,11,13,15,17,19,-1,21,23,25,-1,27,29,31,-1,-1,-1,33,35,37,-1,39,-1,-1,-1,-1,-1,-1,-1,-1,-1,-1,-1,-1,-1,-1,-1],"loss_changes":[6.3976874E2,2.9389313E2,4.360942E2,2.2552039E2,5.04718E0,2.425568E2,2.9044128E1,2.1028839E2,8.9084305E1,1.0599136E-1,0E0,1.1661868E2,2.1321808E1,5.1096497E0,0E0,1.3869897E2,2.7343525E1,1.2876896E1,0E0,0E0,0E0,9.483237E1,9.14476E0,6.843292E0,0E0,1.62323E-1,0E0,0E0,0E0,0E0,0E0,0E0,0E0,0E0,0E0,0E0,0E0,0E0,0E0,0E0,0E0],"parents":[2147483647,0,0,1,1,2,2,3,3,4,4,5,5,6,6,7,7,8,8,9,9,11,11,12,12,13,13,15,15,16,16,17,17,21,21,22,22,23,23,25,25],"right_children":[2,4,6,8,10,12,14,16,18,20,-1,22,24,26,-1,28,30,32,-1,-1,-1,34,36,38,-1,40,-1,-1,-1,-1,-1,-1,-1,-1,-1,-1,-1,-1,-1,-1,-1],"split_conditions":[5E-1,5E-1,5E-1,5E-1,5E-1,5E-1,5E-1,5E-1,5E-1,5E-1,3.844546E-3,5E-1,5E-1,5E-1,-1.3610258E-3,5E-1,5E-1,5E-1,5.675252E-3,2.3420625E-3,1.4842089E-3,5E-1,5E-1,5E-1,-9.9655306E-5,5E-1,-6.049402E-3,-3.948005E-3,6.185585E-3,1.000953E-3,1.14479065E-2,-6.657411E-4,5.7450146E-3,1.1162807E-3,4.650282E-3,3.929963E-3,6.085548E-3,9.375727E-3,1.3401195E-2,-1.0098587E-2,-1.249249E-2],"split_indices":[5,1,9,4,3,0,1,2,8,0,0,1,6,2,0,0,0,0,0,0,0,4,3,2,0,7,0,0,0,0,0,0,0,0,0,0,0,0,0,0,0],"split_type":[0,0,0,0,0,0,0,0,0,0,0,0,0,0,0,0,0,0,0,0,0,0,0,0,0,0,0,0,0,0,0,0,0,0,0,0,0,0,0,0,0],"sum_hessian":[1.859246E4,9.354595E3,9.237867E3,8.379397E3,9.751981E2,8.8706E3,3.6726764E2,7.3275483E3,1.0518488E3,3.108566E2,6.643415E2,8.416421E3,4.5417862E2,3.209455E2,4.632212E1,6.362866E3,9.6468207E2,6.630935E2,3.8875528E2,2.886567E2,2.2199888E1,7.5241245E3,8.9229626E2,4.3182806E2,2.2350544E1,2.8438855E2,3.6556946E1,6.2256636E3,1.372024E2,9.3992694E2,2.4755093E1,6.311239E2,3.1969633E1,6.6680103E3,8.561143E2,3.1030673E2,5.819895E2,3.7748868E2,5.4339397E1,2.6211172E2,2.2276833E1],"tree_param":{"num_deleted":"0","num_feature":"10","num_nodes":"41","size_leaf_vector":"0"}},{"base_weights":[5.5089775E-5,-1.8246482E-1,1.8488336E-1,-2.4234498E-1,3.3176768E-1,2.2868781E-1,-8.720454E-1,-3.0388957E-1,1.8627898E-1,2.2631995E-1,3.8070112E-1,1.9057183E-1,9.339653E-1,-9.7785735E-1,-1.347739E-1,-3.6920682E-1,1.2680212E-1,-3.4492306E-2,5.621378E-1,2.3189154E-1,1.4700513E-1,1.5038526E-1,5.2902204E-1,9.82798E-1,-9.870141E-3,-1.0242853E0,-5.993738E-1,-4.3029135E-1,-1.2586656E-2,9.909699E-2,1.1358974E0,-6.590985E-2,5.6920546E-1,1.10514E-1,4.6053427E-1,3.8917017E-1,6.028169E-1,9.294398E-1,1.3303938E0,-1.0013208E0,-1.2399237E0],"categories":[],"categories_nodes":[],"categories_segments":[],"categories_sizes":[],"default_left":[true,true,true,true,true,true,true,true,true,true,false,true,true,true,false,true,true,true,false,false,false,true,true,true,false,true,false,false,false,false,false,false,false,false,false,false,false,false,false,false,false],"id":27,"left_children":[1,3,5,7,9,11,13,15,17,19,-1,21,23,25,-1,27,29,31,-1,-1,-1,33,35,37,-1,39,-1,-1,-1,-1,-1,-1,-1,-1,-1,-1,-1,-1,-1,-1,-1],"loss_changes":[6.271557E2,2.8810504E2,4.278539E2,2.2108392E2,4.950058E0,2.382727E2,2.8561005E1,2.0617029E2,8.7366234E1,1.03713036E-1,0E0,1.1439618E2,2.0959595E1,5.0351562E0,0E0,1.385951E2,2.6883387E1,1.2632798E1,0E0,0E0,0E0,9.3000015E1,8.980408E0,6.7793884E0,0E0,1.6946411E-1,0E0,0E0,0E0,0E0,0E0,0E0,0E0,0E0,0E0,0E0,0E0,0E0,0E0,0E0,0E0],"parents":[2147483647,0,0,1,1,2,2,3,3,4,4,5,5,6,6,7,7,8,8,9,9,11,11,12,12,13,13,15,15,16,16,17,17,21,21,22,22,23,23,25,25],"right_children":[2,4,6,8,10,12,14,16,18,20,-1,22,24,26,-1,28,30,32,-1,-1,-1,34,36,38,-1,40,-1,-1,-1,-1,-1,-1,-1,-1,-1,-1,-1,-1,-1,-1,-1],"split_conditions":[5E-1,5E-1,5E-1,5E-1,5E-1,5E-1,5E-1,5E-1,5E-1,5E-1,3.807011E-3,5E-1,5E-1,5E-1,-1.3477389E-3,5E-1,5E-1,5E-1,5.621378E-3,2.3189154E-3,1.4700512E-3,5E-1,5E-1,5E-1,-9.870141E-5,5E-1,-5.993738E-3,-4.3029133E-3,-1.2586656E-4,9.9097E-4,1.1358974E-2,-6.5909844E-4,5.6920545E-3,1.10514E-3,4.6053426E-3,3.8917016E-3,6.028169E-3,9.294397E-3,1.3303937E-2,-1.0013208E-2,-1.2399237E-2],"split_indices":[5,1,9,4,3,0,1,2,8,0,0,1,6,2,0,7,0,0,0,0,0,4,3,2,0,7,0,0,0,0,0,0,0,0,0,0,0,0,0,0,0],"split_type":[0,0,0,0,0,0,0,0,0,0,0,0,0,0,0,0,0,0,0,0,0,0,0,0,0,0,0,0,0,0,0,0,0,0,0,0,0,0,0,0,0],"sum_hessian":[1.8588742E4,9.352781E3,9.23596E3,8.377757E3,9.7502484E2,8.869161E3,3.667991E2,7.326116E3,1.0516401E3,3.1083188E2,6.64193E2,8.415618E3,4.5354297E2,3.204783E2,4.6320827E1,6.361496E3,9.646202E2,6.630734E2,3.885667E2,2.8863272E2,2.219915E1,7.5237188E3,8.9189954E2,4.311924E2,2.2350542E1,2.839414E2,3.653688E1,5.431024E3,9.3047235E2,9.399127E2,2.4707483E1,6.311196E2,3.1953802E1,6.667884E3,8.5583466E2,3.1023428E2,5.816652E2,3.7699512E2,5.4197308E1,2.617137E2,2.2227697E1],"tree_param":{"num_deleted":"0","num_feature":"10","num_nodes":"41","size_leaf_vector":"0"}},{"base_weights":[5.6447076E-5,-1.8067628E-1,1.8307434E-1,-2.399719E-1,3.2851776E-1,2.2644332E-1,-8.645384E-1,-3.0091628E-1,1.844643E-1,2.2408722E-1,3.7698638E-1,1.8868655E-1,9.260065E-1,-9.6961546E-1,-1.3345845E-1,-3.6560503E-1,1.255552E-1,-3.414091E-2,5.568082E-1,2.2960022E-1,1.4560334E-1,1.4889047E-1,5.239821E-1,9.744954E-1,-9.775459E-3,-1.0157591E0,-5.938661E-1,-4.261113E-1,-1.2460985E-2,9.81084E-2,1.1271262E0,-6.525236E-2,5.639646E-1,1.09411135E-1,4.560873E-1,3.8538304E-1,5.971404E-1,9.2140627E-1,1.3208252E0,-9.928912E-1,-1.2307379E0],"categories":[],"categories_nodes":[],"categories_segments":[],"categories_sizes":[],"default_left":[true,true,true,true,true,true,true,true,true,true,false,true,true,true,false,true,true,true,false,false,false,true,true,true,false,true,false,false,false,false,false,false,false,false,false,false,false,false,false,false,false],"id":28,"left_children":[1,3,5,7,9,11,13,15,17,19,-1,21,23,25,-1,27,29,31,-1,-1,-1,33,35,37,-1,39,-1,-1,-1,-1,-1,-1,-1,-1,-1,-1,-1,-1,-1,-1,-1],"loss_changes":[6.1480115E2,2.824368E2,4.197783E2,2.1674152E2,4.8548813E0,2.3407608E2,2.8088013E1,2.0214111E2,8.568266E1,1.0148239E-1,0E0,1.1221777E2,2.060492E1,4.9624023E0,0E0,1.359118E2,2.6432503E1,1.239345E1,0E0,0E0,0E0,9.1204285E1,8.819458E0,6.717499E0,0E0,1.765747E-1,0E0,0E0,0E0,0E0,0E0,0E0,0E0,0E0,0E0,0E0,0E0,0E0,0E0,0E0,0E0],"parents":[2147483647,0,0,1,1,2,2,3,3,4,4,5,5,6,6,7,7,8,8,9,9,11,11,12,12,13,13,15,15,16,16,17,17,21,21,22,22,23,23,25,25],"right_children":[2,4,6,8,10,12,14,16,18,20,-1,22,24,26,-1,28,30,32,-1,-1,-1,34,36,38,-1,40,-1,-1,-1,-1,-1,-1,-1,-1,-1,-1,-1,-1,-1,-1,-1],"split_conditions":[5E-1,5E-1,5E-1,5E-1,5E-1,5E-1,5E-1,5E-1,5E-1,5E-1,3.7698639E-3,5E-1,5E-1,5E-1,-1.3345844E-3,5E-1,5E-1,5E-1,5.5680815E-3,2.296002E-3,1.4560334E-3,5E-1,5E-1,5E-1,-9.7754586E-5,5E-1,-5.938661E-3,-4.2611132E-3,-1.2460985E-4,9.81084E-4,1.1271262E-2,-6.525236E-4,5.6396457E-3,1.0941114E-3,4.560873E-3,3.8538303E-3,5.971404E-3,9.214062E-3,1.3208251E-2,-9.928912E-3,-1.2307379E-2],"split_indices":[5,1,9,4,3,0,1,2,8,0,0,1,6,2,0,7,0,0,0,0,0,4,3,2,0,7,0,0,0,0,0,0,0,0,0,0,0,0,0,0,0],"split_type":[0,0,0,0,0,0,0,0,0,0,0,0,0,0,0,0,0,0,0,0,0,0,0,0,0,0,0,0,0,0,0,0,0,0,0,0,0,0,0,0,0],"sum_hessian":[1.8584787E4,9.350776E3,9.23401E3,8.375929E3,9.748477E2,8.86769E3,3.6632004E2,7.324502E3,1.0514268E3,3.1080658E2,6.6404114E2,8.414797E3,4.5289297E2,3.2000052E2,4.63195E1,6.3599453E3,9.645568E2,6.630529E2,3.8837384E2,2.886082E2,2.2198397E1,7.523303E3,8.914938E2,4.3054242E2,2.235054E1,2.834842E2,3.651635E1,5.429474E3,9.304711E2,9.398981E2,2.4658783E1,6.311153E2,3.1937607E1,6.6677544E3,8.555488E2,3.101602E2,5.8133356E2,3.7649042E2,5.4052002E1,2.613068E2,2.2177378E1],"tree_param":{"num_deleted":"0","num_feature":"10","num_nodes":"41","size_leaf_vector":"0"}},{"base_weights":[5.784079E-5,-1.7890613E-1,1.8128395E-1,-2.376232E-1,3.2530087E-1,2.2422178E-1,-8.571217E-1,-2.9797348E-1,1.8266802E-1,2.2187664E-1,3.7330967E-1,1.8682043E-1,9.181457E-1,-9.614761E-1,-1.3215606E-1,-3.6204034E-1,1.2432125E-1,-3.3793017E-2,5.515346E-1,2.273317E-1,1.4421476E-1,1.474108E-1,5.1899546E-1,9.6629643E-1,-9.6821245E-3,-1.0073414E0,-5.884162E-1,-3.8376907E-1,6.189482E-1,9.7130194E-2,1.1184738E0,-6.4601354E-2,5.587783E-1,1.0831944E-1,4.5168644E-1,3.8163468E-1,5.91525E-1,9.1347003E-1,1.3114096E0,-9.845675E-1,-1.2216873E0],"categories":[],"categories_nodes":[],"categories_segments":[],"categories_sizes":[],"default_left":[true,true,true,true,true,true,true,true,true,true,false,true,true,true,false,true,true,true,false,false,false,true,true,true,false,true,false,false,false,false,false,false,false,false,false,false,false,false,false,false,false],"id":29,"left_children":[1,3,5,7,9,11,13,15,17,19,-1,21,23,25,-1,27,29,31,-1,-1,-1,33,35,37,-1,39,-1,-1,-1,-1,-1,-1,-1,-1,-1,-1,-1,-1,-1,-1,-1],"loss_changes":[6.026932E2,2.7688126E2,4.118638E2,2.1248526E2,4.7616196E0,2.2996475E2,2.7624908E1,1.9819257E2,8.40325E1,9.930134E-2,0E0,1.10082886E2,2.025766E1,4.8914185E0,0E0,1.3579114E2,2.5990597E1,1.2158754E1,0E0,0E0,0E0,8.9444214E1,8.661789E0,6.65744E0,0E0,1.8359375E-1,0E0,0E0,0E0,0E0,0E0,0E0,0E0,0E0,0E0,0E0,0E0,0E0,0E0,0E0,0E0],"parents":[2147483647,0,0,1,1,2,2,3,3,4,4,5,5,6,6,7,7,8,8,9,9,11,11,12,12,13,13,15,15,16,16,17,17,21,21,22,22,23,23,25,25],"right_children":[2,4,6,8,10,12,14,16,18,20,-1,22,24,26,-1,28,30,32,-1,-1,-1,34,36,38,-1,40,-1,-1,-1,-1,-1,-1,-1,-1,-1,-1,-1,-1,-1,-1,-1],"split_conditions":[5E-1,5E-1,5E-1,5E-1,5E-1,5E-1,5E-1,5E-1,5E-1,5E-1,3.7330966E-3,5E-1,5E-1,5E-1,-1.3215606E-3,5E-1,5E-1,5E-1,5.515346E-3,2.273317E-3,1.4421477E-3,5E-1,5E-1,5E-1,-9.682124E-5,5E-1,-5.884162E-3,-3.8376905E-3,6.1894823E-3,9.713019E-4,1.1184737E-2,-6.4601353E-4,5.5877827E-3,1.0831944E-3,4.516864E-3,3.8163466E-3,5.91525E-3,9.1347005E-3,1.3114096E-2,-9.845675E-3,-1.2216873E-2],"split_indices":[5,1,9,4,3,0,1,2,8,0,0,1,6,2,0,0,0,0,0,0,0,4,3,2,0,7,0,0,0,0,0,0,0,0,0,0,0,0,0,0,0],"split_type":[0,0,0,0,0,0,0,0,0,0,0,0,0,0,0,0,0,0,0,0,0,0,0,0,0,0,0,0,0,0,0,0,0,0,0,0,0,0,0,0,0],"sum_hessian":[1.8580748E4,9.348728E3,9.23202E3,8.374061E3,9.746668E2,8.866188E3,3.658308E2,7.322852E3,1.0512089E3,3.1078076E2,6.6388605E2,8.41396E3,4.5222925E2,3.1951266E2,4.6318142E1,6.35836E3,9.644922E2,6.6303186E2,3.8817694E2,2.8858313E2,2.2197626E1,7.5228804E3,8.910795E2,4.2987872E2,2.2350536E1,2.8301727E2,3.6495388E1,6.221171E3,1.3718889E2,9.398831E2,2.4609034E1,6.311108E2,3.192106E1,6.667623E3,8.552569E2,3.1008453E2,5.80995E2,3.7597513E2,5.3903606E1,2.6089136E2,2.212592E1],"tree_param":{"num_deleted":"0","num_feature":"10","num_nodes":"41","size_leaf_vector":"0"}},{"base_weights":[5.9452726E-5,-1.7715053E-1,1.7951171E-1,-2.3529352E-1,3.2211673E-1,2.2202267E-1,-8.4979284E-1,-2.950538E-1,1.8089E-1,2.1968843E-1,3.696706E-1,1.8497299E-1,9.1038036E-1,-9.534363E-1,-1.3086618E-1,-3.5850263E-1,1.2309921E-1,-3.344861E-2,5.4631656E-1,2.2508618E-1,1.4283973E-1,1.4594583E-1,5.140612E-1,9.581984E-1,-9.589384E-3,-9.990291E-1,-5.830232E-1,-4.1843855E-1,-8.866884E-3,9.616136E-2,1.1099367E0,-6.395679E-2,5.5364573E-1,1.0723849E-1,4.4733125E-1,3.7792504E-1,5.8596927E-1,9.0562856E-1,1.3021424E0,-9.763467E-1,-1.2127686E0],"categories":[],"categories_nodes":[],"categories_segments":[],"categories_sizes":[],"default_left":[true,true,true,true,true,true,true,true,true,true,false,true,true,true,false,true,true,true,false,false,false,true,true,true,false,true,false,false,false,false,false,false,false,false,false,false,false,false,false,false,false],"id":30,"left_children":[1,3,5,7,9,11,13,15,17,19,-1,21,23,25,-1,27,29,31,-1,-1,-1,33,35,37,-1,39,-1,-1,-1,-1,-1,-1,-1,-1,-1,-1,-1,-1,-1,-1,-1],"loss_changes":[5.908189E2,2.7143185E2,4.0410645E2,2.0830804E2,4.670227E0,2.2593628E2,2.7171356E1,1.9431494E2,8.2415146E1,9.7167015E-2,0E0,1.0799051E2,1.991745E1,4.8220215E0,0E0,1.3323071E2,2.5557468E1,1.1928619E1,0E0,0E0,0E0,8.7719315E1,8.507217E0,6.5992737E0,0E0,1.9055176E-1,0E0,0E0,0E0,0E0,0E0,0E0,0E0,0E0,0E0,0E0,0E0,0E0,0E0,0E0,0E0],"parents":[2147483647,0,0,1,1,2,2,3,3,4,4,5,5,6,6,7,7,8,8,9,9,11,11,12,12,13,13,15,15,16,16,17,17,21,21,22,22,23,23,25,25],"right_children":[2,4,6,8,10,12,14,16,18,20,-1,22,24,26,-1,28,30,32,-1,-1,-1,34,36,38,-1,40,-1,-1,-1,-1,-1,-1,-1,-1,-1,-1,-1,-1,-1,-1,-1],"split_conditions":[5E-1,5E-1,5E-1,5E-1,5E-1,5E-1,5E-1,5E-1,5E-1,5E-1,3.696706E-3,5E-1,5E-1,5E-1,-1.3086618E-3,5E-1,5E-1,5E-1,5.4631657E-3,2.2508618E-3,1.4283973E-3,5E-1,5E-1,5E-1,-9.589384E-5,5E-1,-5.8302316E-3,-4.1843853E-3,-8.8668836E-5,9.6161355E-4,1.10993665E-2,-6.395679E-4,5.536457E-3,1.0723849E-3,4.4733123E-3,3.7792502E-3,5.8596926E-3,9.056285E-3,1.30214235E-2,-9.763466E-3,-1.2127685E-2],"split_indices":[5,1,9,4,3,0,1,2,8,0,0,1,6,2,0,7,0,0,0,0,0,4,3,2,0,7,0,0,0,0,0,0,0,0,0,0,0,0,0,0,0],"split_type":[0,0,0,0,0,0,0,0,0,0,0,0,0,0,0,0,0,0,0,0,0,0,0,0,0,0,0,0,0,0,0,0,0,0,0,0,0,0,0,0,0],"sum_hessian":[1.8576781E4,9.346792E3,9.229989E3,8.37231E3,9.7448236E2,8.864658E3,3.6533185E2,7.3213228E3,1.0509866E3,3.1075443E2,6.637279E2,8.413105E3,4.515523E2,3.190151E2,4.6316753E1,6.3568965E3,9.644263E2,6.630105E2,3.879761E2,2.885576E2,2.2196838E1,7.522448E3,8.90657E2,4.2920178E2,2.235053E1,2.825411E2,3.6474E1,5.4264727E3,9.3042413E2,9.39868E2,2.4558275E1,6.311063E2,3.1904182E1,6.6674893E3,8.5495917E2,3.1000735E2,5.806496E2,3.7544952E2,5.375224E1,2.604677E2,2.207337E1],"tree_param":{"num_deleted":"0","num_feature":"10","num_nodes":"41","size_leaf_vector":"0"}},{"base_weights":[6.076906E-5,-1.7541644E-1,1.7775773E-1,-2.3299266E-1,3.18965E-1,2.1984603E-1,-8.4255004E-1,-2.92171E-1,1.7913018E-1,2.1752223E-1,3.660687E-1,1.8314436E-1,9.027082E-1,-9.4549406E-1,-1.2958919E-1,-3.550107E-1,1.2188962E-1,-3.3107687E-2,5.4115367E-1,2.228633E-1,1.414779E-1,1.4449579E-1,5.091785E-1,9.501987E-1,-9.497511E-3,-9.9081975E-1,-5.776862E-1,-3.765292E-1,6.159206E-1,9.520246E-2,1.1015123E0,-6.3318595E-2,5.485655E-1,1.06168605E-1,4.430208E-1,3.7425297E-1,5.804726E-1,8.9787954E-1,1.2930192E0,-9.682265E-1,-1.2039778E0],"categories":[],"categories_nodes":[],"categories_segments":[],"categories_sizes":[],"default_left":[true,true,true,true,true,true,true,true,true,true,false,true,true,true,false,true,true,true,false,false,false,true,true,true,false,true,false,false,false,false,false,false,false,false,false,false,false,false,false,false,false],"id":31,"left_children":[1,3,5,7,9,11,13,15,17,19,-1,21,23,25,-1,27,29,31,-1,-1,-1,33,35,37,-1,39,-1,-1,-1,-1,-1,-1,-1,-1,-1,-1,-1,-1,-1,-1,-1],"loss_changes":[5.791884E2,2.6609515E2,3.9650302E2,2.0421948E2,4.5806503E0,2.2198828E2,2.6727112E1,1.9052148E2,8.083002E1,9.5080376E-2,0E0,1.05939545E2,1.9584259E1,4.754181E0,0E0,1.3303296E2,2.513285E1,1.1702926E1,0E0,0E0,0E0,8.60284E1,8.355804E0,6.5427856E0,0E0,1.9744873E-1,0E0,0E0,0E0,0E0,0E0,0E0,0E0,0E0,0E0,0E0,0E0,0E0,0E0,0E0,0E0],"parents":[2147483647,0,0,1,1,2,2,3,3,4,4,5,5,6,6,7,7,8,8,9,9,11,11,12,12,13,13,15,15,16,16,17,17,21,21,22,22,23,23,25,25],"right_children":[2,4,6,8,10,12,14,16,18,20,-1,22,24,26,-1,28,30,32,-1,-1,-1,34,36,38,-1,40,-1,-1,-1,-1,-1,-1,-1,-1,-1,-1,-1,-1,-1,-1,-1],"split_conditions":[5E-1,5E-1,5E-1,5E-1,5E-1,5E-1,5E-1,5E-1,5E-1,5E-1,3.6606868E-3,5E-1,5E-1,5E-1,-1.2958918E-3,5E-1,5E-1,5E-1,5.4115364E-3,2.228633E-3,1.414779E-3,5E-1,5E-1,5E-1,-9.497511E-5,5E-1,-5.7768617E-3,-3.7652918E-3,6.159206E-3,9.520246E-4,1.1015123E-2,-6.3318596E-4,5.485655E-3,1.0616861E-3,4.430208E-3,3.7425298E-3,5.804726E-3,8.978795E-3,1.2930191E-2,-9.682265E-3,-1.2039778E-2],"split_indices":[5,1,9,4,3,0,1,2,8,0,0,1,6,2,0,0,0,0,0,0,0,4,3,2,0,7,0,0,0,0,0,0,0,0,0,0,0,0,0,0,0],"split_type":[0,0,0,0,0,0,0,0,0,0,0,0,0,0,0,0,0,0,0,0,0,0,0,0,0,0,0,0,0,0,0,0,0,0,0,0,0,0,0,0,0],"sum_hessian":[1.8572586E4,9.344665E3,9.227921E3,8.370371E3,9.742944E2,8.863098E3,3.6482352E2,7.319611E3,1.0507603E3,3.107276E2,6.635668E2,8.412235E3,4.508627E2,3.1850815E2,4.6315346E1,6.355252E3,9.64359E2,6.629887E2,3.8777148E2,2.8853156E2,2.2196035E1,7.5220083E3,8.9022656E2,4.2851218E2,2.2350529E1,2.8205597E2,3.64522E1,6.218055E3,1.3719687E2,9.398524E2,2.4506542E1,6.3110175E2,3.1886982E1,6.6673525E3,8.5465594E2,3.0992874E2,5.8029785E2,3.7491415E2,5.359802E1,2.600362E2,2.201976E1],"tree_param":{"num_deleted":"0","num_feature":"10","num_nodes":"41","size_leaf_vector":"0"}},{"base_weights":[6.239588E-5,-1.7369647E-1,1.7602155E-1,-2.3071024E-1,3.1584495E-1,2.1769139E-1,-8.353915E-1,-2.8931054E-1,1.7738798E-1,2.153776E-1,3.6250317E-1,1.8133408E-1,8.9512736E-1,-9.37647E-1,-1.2832458E-1,-3.5154483E-1,1.20691866E-1,-3.2770433E-2,5.360445E-1,2.206626E-1,1.401288E-1,1.4306024E-1,5.043467E-1,9.4229555E-1,-9.406505E-3,-9.8271096E-1,-5.7240456E-1,-4.1091752E-1,-5.3773825E-3,9.425292E-2,1.0931975E0,-6.2686995E-2,5.435377E-1,1.0510935E-1,4.387548E-1,3.7061816E-1,5.7503396E-1,8.9022154E-1,1.2840358E0,-9.6020454E-1,-1.1953114E0],"categories":[],"categories_nodes":[],"categories_segments":[],"categories_sizes":[],"default_left":[true,true,true,true,true,true,true,true,true,true,false,true,true,true,false,true,true,true,false,false,false,true,true,true,false,true,false,false,false,false,false,false,false,false,false,false,false,false,false,false,false],"id":32,"left_children":[1,3,5,7,9,11,13,15,17,19,-1,21,23,25,-1,27,29,31,-1,-1,-1,33,35,37,-1,39,-1,-1,-1,-1,-1,-1,-1,-1,-1,-1,-1,-1,-1,-1,-1],"loss_changes":[5.6778217E2,2.608599E2,3.8904993E2,2.0020639E2,4.4928436E0,2.1811899E2,2.6291824E1,1.8679608E2,7.92763E1,9.303951E-2,0E0,1.0392917E2,1.9257751E1,4.687866E0,0E0,1.306059E2,2.4716536E1,1.1481624E1,0E0,0E0,0E0,8.437108E1,8.207428E0,6.487976E0,0E0,2.0428467E-1,0E0,0E0,0E0,0E0,0E0,0E0,0E0,0E0,0E0,0E0,0E0,0E0,0E0,0E0,0E0],"parents":[2147483647,0,0,1,1,2,2,3,3,4,4,5,5,6,6,7,7,8,8,9,9,11,11,12,12,13,13,15,15,16,16,17,17,21,21,22,22,23,23,25,25],"right_children":[2,4,6,8,10,12,14,16,18,20,-1,22,24,26,-1,28,30,32,-1,-1,-1,34,36,38,-1,40,-1,-1,-1,-1,-1,-1,-1,-1,-1,-1,-1,-1,-1,-1,-1],"split_conditions":[5E-1,5E-1,5E-1,5E-1,5E-1,5E-1,5E-1,5E-1,5E-1,5E-1,3.6250316E-3,5E-1,5E-1,5E-1,-1.2832459E-3,5E-1,5E-1,5E-1,5.3604445E-3,2.2066259E-3,1.4012881E-3,5E-1,5E-1,5E-1,-9.406505E-5,5E-1,-5.7240454E-3,-4.109175E-3,-5.3773823E-5,9.425292E-4,1.0931974E-2,-6.268699E-4,5.4353764E-3,1.0510935E-3,4.3875477E-3,3.7061817E-3,5.7503395E-3,8.902215E-3,1.2840358E-2,-9.602046E-3,-1.1953114E-2],"split_indices":[5,1,9,4,3,0,1,2,8,0,0,1,6,2,0,7,0,0,0,0,0,4,3,2,0,7,0,0,0,0,0,0,0,0,0,0,0,0,0,0,0],"split_type":[0,0,0,0,0,0,0,0,0,0,0,0,0,0,0,0,0,0,0,0,0,0,0,0,0,0,0,0,0,0,0,0,0,0,0,0,0,0,0,0,0],"sum_hessian":[1.8568469E4,9.342654E3,9.225815E3,8.368551E3,9.7410315E2,8.86151E3,3.6430615E2,7.318021E3,1.0505298E3,3.1070026E2,6.634029E2,8.411349E3,4.5016092E2,3.1799225E2,4.6313908E1,6.3537305E3,9.642906E2,6.629665E2,3.8756332E2,2.8850504E2,2.2195219E1,7.52156E3,8.897886E2,4.278104E2,2.2350525E1,2.8156223E2,3.643001E1,5.4233594E3,9.3037115E2,9.398367E2,2.4453876E1,6.3109705E2,3.1869473E1,6.667213E3,8.543473E2,3.0984875E2,5.799398E2,3.7436932E2,5.3441055E1,2.5959708E2,2.1965137E1],"tree_param":{"num_deleted":"0","num_feature":"10","num_nodes":"41","size_leaf_vector":"0"}},{"base_weights":[6.357621E-5,-1.7199753E-1,1.7430289E-1,-2.28456E-1,3.1275663E-1,2.1555841E-1,-8.2831526E-1,-2.8648606E-1,1.7566353E-1,2.1325442E-1,3.5897413E-1,1.7954193E-1,8.876353E-1,-9.298929E-1,-1.2707226E-1,-3.481237E-1,1.19506165E-1,-3.243648E-2,5.309886E-1,2.1848394E-1,1.3879324E-1,1.4163901E-1,4.995648E-1,9.3448603E-1,-9.316572E-3,-9.747003E-1,-5.671772E-1,-3.6943448E-1,6.128615E-1,9.331298E-2,1.0849895E0,-6.2061545E-2,5.385608E-1,1.0406059E-1,4.3453273E-1,3.670204E-1,5.6965196E-1,8.8265175E-1,1.2751881E0,-9.522785E-1,-1.1867664E0],"categories":[],"categories_nodes":[],"categories_segments":[],"categories_sizes":[],"default_left":[true,true,true,true,true,true,true,true,true,true,false,true,true,true,false,true,true,true,false,false,false,true,true,true,false,true,false,false,false,false,false,false,false,false,false,false,false,false,false,false,false],"id":33,"left_children":[1,3,5,7,9,11,13,15,17,19,-1,21,23,25,-1,27,29,31,-1,-1,-1,33,35,37,-1,39,-1,-1,-1,-1,-1,-1,-1,-1,-1,-1,-1,-1,-1,-1,-1],"loss_changes":[5.566091E2,2.5573294E2,3.8174377E2,1.9627838E2,4.4067993E0,2.1432617E2,2.5865372E1,1.8315143E2,7.775333E1,9.104061E-2,0E0,1.01958466E2,1.8937775E1,4.6230164E0,0E0,1.3033234E2,2.4308311E1,1.1264587E1,0E0,0E0,0E0,8.2746704E1,8.061905E0,6.434662E0,0E0,2.1102905E-1,0E0,0E0,0E0,0E0,0E0,0E0,0E0,0E0,0E0,0E0,0E0,0E0,0E0,0E0,0E0],"parents":[2147483647,0,0,1,1,2,2,3,3,4,4,5,5,6,6,7,7,8,8,9,9,11,11,12,12,13,13,15,15,16,16,17,17,21,21,22,22,23,23,25,25],"right_children":[2,4,6,8,10,12,14,16,18,20,-1,22,24,26,-1,28,30,32,-1,-1,-1,34,36,38,-1,40,-1,-1,-1,-1,-1,-1,-1,-1,-1,-1,-1,-1,-1,-1,-1],"split_conditions":[5E-1,5E-1,5E-1,5E-1,5E-1,5E-1,5E-1,5E-1,5E-1,5E-1,3.5897412E-3,5E-1,5E-1,5E-1,-1.2707226E-3,5E-1,5E-1,5E-1,5.309886E-3,2.1848395E-3,1.3879325E-3,5E-1,5E-1,5E-1,-9.316572E-5,5E-1,-5.6717717E-3,-3.6943448E-3,6.1286152E-3,9.3312975E-4,1.0849895E-2,-6.2061544E-4,5.385608E-3,1.0406058E-3,4.345327E-3,3.670204E-3,5.6965193E-3,8.8265175E-3,1.2751881E-2,-9.5227845E-3,-1.1867664E-2],"split_indices":[5,1,9,4,3,0,1,2,8,0,0,1,6,2,0,0,0,0,0,0,0,4,3,2,0,7,0,0,0,0,0,0,0,0,0,0,0,0,0,0,0],"split_type":[0,0,0,0,0,0,0,0,0,0,0,0,0,0,0,0,0,0,0,0,0,0,0,0,0,0,0,0,0,0,0,0,0,0,0,0,0,0,0,0,0],"sum_hessian":[1.8564133E4,9.340456E3,9.223676E3,8.366548E3,9.739087E2,8.8598955E3,3.6378018E2,7.3162524E3,1.0502955E3,3.106725E2,6.632362E2,8.410448E3,4.494474E2,3.1746774E2,4.631245E1,6.3520312E3,9.6422095E2,6.629439E2,3.8735162E2,2.8847812E2,2.219439E1,7.5211055E3,8.8934326E2,4.2709686E2,2.2350521E1,2.810603E2,3.6407444E1,6.214827E3,1.3720425E2,9.398206E2,2.4400316E1,6.310922E2,3.1851664E1,6.667072E3,8.5403357E2,3.0976743E2,5.7957587E2,3.738154E2,5.328146E1,2.5915076E2,2.1909542E1],"tree_param":{"num_deleted":"0","num_feature":"10","num_nodes":"41","size_leaf_vector":"0"}},{"base_weights":[6.5082095E-5,-1.7031232E-1,1.7260158E-1,-2.2621974E-1,3.0969965E-1,2.134469E-1,-8.2131964E-1,-2.8368348E-1,1.7395644E-1,2.1115275E-1,3.5548103E-1,1.777677E-1,8.802306E-1,-9.2222977E-1,-1.258323E-1,-3.4472805E-1,1.18332244E-1,-3.21059E-2,5.259849E-1,2.163274E-1,1.374702E-1,1.402319E-1,4.9483237E-1,9.2676866E-1,-9.227348E-3,-9.6678543E-1,-5.6200314E-1,-4.0354437E-1,-1.9899032E-3,9.2382394E-2,1.0768857E0,-6.1442308E-2,5.336346E-1,1.0302222E-1,4.3035355E-1,3.6345905E-1,5.643264E-1,8.75169E-1,1.2664726E0,-9.4444627E-1,-1.178339E0],"categories":[],"categories_nodes":[],"categories_segments":[],"categories_sizes":[],"default_left":[true,true,true,true,true,true,true,true,true,true,false,true,true,true,false,true,true,true,false,false,false,true,true,true,false,true,false,false,false,false,false,false,false,false,false,false,false,false,false,false,false],"id":34,"left_children":[1,3,5,7,9,11,13,15,17,19,-1,21,23,25,-1,27,29,31,-1,-1,-1,33,35,37,-1,39,-1,-1,-1,-1,-1,-1,-1,-1,-1,-1,-1,-1,-1,-1,-1],"loss_changes":[5.4565094E2,2.5070374E2,3.745815E2,1.9242297E2,4.3224564E0,2.1060803E2,2.5447357E1,1.7957214E2,7.6260414E1,8.908558E-2,0E0,1.0002667E2,1.8624207E1,4.5595703E0,0E0,1.2803558E2,2.3907967E1,1.1051748E1,0E0,0E0,0E0,8.115431E1,7.9192963E0,6.3828735E0,0E0,2.177124E-1,0E0,0E0,0E0,0E0,0E0,0E0,0E0,0E0,0E0,0E0,0E0,0E0,0E0,0E0,0E0],"parents":[2147483647,0,0,1,1,2,2,3,3,4,4,5,5,6,6,7,7,8,8,9,9,11,11,12,12,13,13,15,15,16,16,17,17,21,21,22,22,23,23,25,25],"right_children":[2,4,6,8,10,12,14,16,18,20,-1,22,24,26,-1,28,30,32,-1,-1,-1,34,36,38,-1,40,-1,-1,-1,-1,-1,-1,-1,-1,-1,-1,-1,-1,-1,-1,-1],"split_conditions":[5E-1,5E-1,5E-1,5E-1,5E-1,5E-1,5E-1,5E-1,5E-1,5E-1,3.5548103E-3,5E-1,5E-1,5E-1,-1.258323E-3,5E-1,5E-1,5E-1,5.2598487E-3,2.163274E-3,1.374702E-3,5E-1,5E-1,5E-1,-9.2273476E-5,5E-1,-5.620031E-3,-4.0354435E-3,-1.9899031E-5,9.238239E-4,1.0768857E-2,-6.144231E-4,5.336346E-3,1.0302222E-3,4.3035354E-3,3.6345904E-3,5.643264E-3,8.751689E-3,1.2664725E-2,-9.444462E-3,-1.1783389E-2],"split_indices":[5,1,9,4,3,0,1,2,8,0,0,1,6,2,0,7,0,0,0,0,0,4,3,2,0,7,0,0,0,0,0,0,0,0,0,0,0,0,0,0,0],"split_type":[0,0,0,0,0,0,0,0,0,0,0,0,0,0,0,0,0,0,0,0,0,0,0,0,0,0,0,0,0,0,0,0,0,0,0,0,0,0,0,0,0],"sum_hessian":[1.8559877E4,9.338375E3,9.221502E3,8.364663E3,9.737112E2,8.858257E3,3.6324597E2,7.3146055E3,1.0500577E3,3.1064432E2,6.630669E2,8.409533E3,4.4872275E2,3.16935E2,4.6310966E1,6.3504556E3,9.6415027E2,6.62921E2,3.871367E2,2.8845078E2,2.2193544E1,7.5206426E3,8.88891E2,4.2637222E2,2.2350517E1,2.8055048E2,3.6384518E1,5.420143E3,9.3031244E2,9.398044E2,2.4345896E1,6.310874E2,3.1833569E1,6.6669277E3,8.5371484E2,3.096848E2,5.792062E2,3.7325287E2,5.311935E1,2.5869748E2,2.185301E1],"tree_param":{"num_deleted":"0","num_feature":"10","num_nodes":"41","size_leaf_vector":"0"}},{"base_weights":[6.632938E-5,-1.6864756E-1,1.7091769E-1,-2.2401085E-1,3.0667317E-1,2.113569E-1,-8.1440276E-1,-2.8091583E-1,1.7226648E-1,2.0907171E-1,3.5202292E-1,1.760115E-1,8.72911E-1,-9.1465527E-1,-1.2460473E-1,-3.4137583E-1,1.1717008E-1,-3.177882E-2,5.210329E-1,2.1419208E-1,1.361597E-1,1.3883914E-1,4.9014875E-1,9.1914093E-1,-9.139047E-3,-9.5896393E-1,-5.568817E-1,-3.6248133E-1,6.097725E-1,9.146118E-2,1.0688835E0,-6.0829375E-2,5.28758E-1,1.0199446E-1,4.2621723E-1,3.599339E-1,5.590562E-1,8.6777097E-1,1.2578852E0,-9.3670535E-1,-1.1700264E0],"categories":[],"categories_nodes":[],"categories_segments":[],"categories_sizes":[],"default_left":[true,true,true,true,true,true,true,true,true,true,false,true,true,true,false,true,true,true,false,false,false,true,true,true,false,true,false,false,false,false,false,false,false,false,false,false,false,false,false,false,false],"id":35,"left_children":[1,3,5,7,9,11,13,15,17,19,-1,21,23,25,-1,27,29,31,-1,-1,-1,33,35,37,-1,39,-1,-1,-1,-1,-1,-1,-1,-1,-1,-1,-1,-1,-1,-1,-1],"loss_changes":[5.349173E2,2.457778E2,3.6756003E2,1.8864886E2,4.2397842E0,2.0696246E2,2.5037582E1,1.7607013E2,7.4797005E1,8.717346E-2,0E0,9.813281E1,1.8316833E1,4.497467E0,0E0,1.2768793E2,2.3515299E1,1.0843012E1,0E0,0E0,0E0,7.959335E1,7.7794647E0,6.332489E0,0E0,2.243042E-1,0E0,0E0,0E0,0E0,0E0,0E0,0E0,0E0,0E0,0E0,0E0,0E0,0E0,0E0,0E0],"parents":[2147483647,0,0,1,1,2,2,3,3,4,4,5,5,6,6,7,7,8,8,9,9,11,11,12,12,13,13,15,15,16,16,17,17,21,21,22,22,23,23,25,25],"right_children":[2,4,6,8,10,12,14,16,18,20,-1,22,24,26,-1,28,30,32,-1,-1,-1,34,36,38,-1,40,-1,